tree
version=v4
num_class=1
num_tree_per_iteration=1
label_index=0
max_feature_idx=26
objective=binary sigmoid:1
feature_names=horse_id jockey_id trainer_id sex age weight weight_diff tansho_odds popularity impost wakuban umaban race_type around course_len weather ground_state race_class place rank_3races prize_3races rank_5races prize_5races rank_10races prize_10races rank_1000races prize_1000races
feature_infos=[2011106610:2022110112] [422:5663] [362:5779] [0:2] [2:12] [336:630] [-46:44] [1.1000000000000001:999.89999999999998] [1:18] [49:65] [1:8] [1:18] [0:3] [0:1] [2:4250] [0:3] [0:3] [0:5] [1:10] [1:18] [0:20901.866666666665] [1:18] [0:21052] [1:18] [0:13918.799999999999] [1:18] [0:13918.799999999999]
tree_sizes=3305 3332 3340 3353 3361 3347 3365 3375 3343 3380 3354 3389 3377 3395 3377 3374 3379 3369 3398 3382 3339 3397 3373 3375 3383 3393 3382 3395 3365 3379 3377 3389 3368 3386 3369 3373 3396 3402 3355 3363 3357 3361 3373 3381 3407 3363 3363 3392 3366 3396 3375 3378 3354 3368 3405 3390 3366 3370 3356 3382 3379 3369 3393 3368 3374 3357 3378 3377 3386 3379 3377 3351 3397 3361 3372 3364 3368 3368 3384 3367 3374 3385 3375 3367 3357 3361 3383 3393 3374 3374 3366 3359 3374 3392 3369 3386 3383 3392 3379 3389

Tree=0
num_leaves=31
num_cat=0
split_feature=7 7 7 7 7 7 7 20 20 7 2 20 7 11 5 9 25 10 24 3 21 23 25 14 24 5 2 21 20 22
split_gain=7665.47 1431.21 1237.78 230.373 171.922 148.004 136.638 53.6993 48.9269 45.3319 38.5701 36.342 35.7743 35.6608 30.7417 29.0665 27.6008 26.5918 26.5785 25.6758 25.6588 31.3987 28.5931 25.1596 26.5273 24.7566 24.5301 24.4546 33.1374 24.2636
threshold=4.6500000000000012 12.65 2.4500000000000006 1.5500000000000003 24.250000000000004 3.5500000000000003 7.4500000000000011 286.70000000000005 72.13333333333334 1.9500000000000002 424.00000000000006 1450.0166666666669 64.550000000000011 14.500000000000002 507.00000000000006 53.500000000000007 9.4309523809523821 6.5000000000000009 76.316666666666677 1.0000000180025095e-35 4.9000000000000012 4.4722222222222232 4.7523584905660385 1950.0000000000002 157.51500000000001 479.00000000000006 1144.5000000000002 4.7083333333333348 119.41666666666667 1148.2000000000003
decision_type=2 2 2 2 2 2 2 8 8 2 2 8 2 2 2 2 10 2 10 2 8 8 10 10 10 2 2 10 8 8
left_child=2 6 3 7 -3 8 16 -1 -4 11 -11 -5 -6 15 17 18 -2 26 -10 -15 22 -22 23 -7 -25 -23 27 28 -12 -19
right_child=1 4 5 9 12 20 -8 -9 13 10 14 -13 -14 19 -16 -17 -18 29 -20 -21 21 25 -24 24 -26 -27 -28 -29 -30 -31
leaf_value=-1.8631959114375731 -2.4510509709475126 -2.5754085705092407 -2.0861334858846412 -1.9505973423079812 -2.6152348102897824 -2.3845766491560982 -2.519527359185544 -1.5850422858204536 -1.7617417014860401 -2.5812172523989041 -1.593456543709296 -2.2101834003343082 -2.6392103396334456 -1.9759228113837204 -1.9515299627564846 -2.2781758726316177 -2.1939902720658346 -1.9874230857553743 -2.1814028136918076 -2.2719301551683668 -2.0930531058590143 -2.281491633959011 -2.4797898887413252 -2.4367438940728667 -2.218990189392601 -2.3824483509111207 -2.2543108690494003 -2.308668464260474 -2.0890517603955727 -2.4243645102319888
leaf_weight=14.19359500706196 522.17488999664783 758.98381721973419 18.064575463533401 55.280317395925522 1043.1952770501375 101.66417093575001 574.33125825226307 13.582387566566466 1.6977984458208073 1.5619745701551426 1.4261506944894851 5.9762505292892447 1542.6875798106194 7.4703131616115552 15.280186012387274 188.52353942394257 4.210540145635604 19.762373909354213 13.582387566566466 4.8217475861310959 5.9762505292892447 51.409336939454079 24.176649868488312 7.6740489751100567 20.64522910118103 46.044293850660324 15.348097950220106 4.7538356482982627 24.9915931224823 1.3582387566566456
leaf_count=209 7689 11176 266 814 15361 1497 8457 200 25 23 21 88 22716 110 225 2776 62 291 200 71 88 757 356 113 304 678 226 70 368 20
internal_value=-2.53733 -2.58471 -2.22075 -1.99112 -2.61726 -2.30177 -2.4858 -1.72718 -2.24423 -2.04142 -2.08891 -1.97592 -2.62954 -2.25745 -2.07964 -2.26742 -2.44899 -2.10858 -2.13477 -2.09204 -2.35408 -2.31555 -2.37993 -2.36136 -2.278 -2.32919 -2.15082 -2.09987 -2.0623 -2.01552
internal_weight=0 4445.58 665.265 173.515 3344.87 491.75 1100.72 27.776 234.16 145.739 84.4825 61.2566 2585.88 216.096 82.9205 203.804 526.385 67.6403 15.2802 12.2921 257.59 103.43 154.16 129.983 28.3193 97.4536 46.5197 31.1716 26.4177 21.1206
internal_count=75257 65461 9796 2555 49253 7241 16208 409 3448 2146 1244 902 38077 3182 1221 3001 7751 996 225 181 3793 1523 2270 1914 417 1435 685 459 389 311
is_linear=0
shrinkage=1


Tree=1
num_leaves=31
num_cat=0
split_feature=7 7 7 7 7 7 7 7 7 24 11 26 1 26 26 20 2 2 11 2 14 2 0 2 18 10 21 2 11 24
split_gain=5033.55 825.753 537.023 116.581 111.948 56.7314 48.9726 30.3527 26.9661 24.5156 18.0267 23.5333 22.7152 24.0986 21.6167 19.4546 18.6498 18.297 17.5045 21.7635 26.9069 17.0088 21.879 16.7419 16.1935 21.7998 16.148 23.8723 21.8432 16.0339
threshold=7.4500000000000011 3.3500000000000001 19.650000000000002 4.8500000000000005 2.4500000000000006 51.650000000000013 12.450000000000001 1.7500000000000002 4.0500000000000007 75.015000000000015 9.5000000000000018 90.030256410256428 1114.5000000000002 188.76250000000002 131.45606060606065 63.416666666666679 1038.5000000000002 428.50000000000006 6.5000000000000009 1161.5000000000002 1250.0000000000002 1122.0000000000002 2020103801.5000002 1175.5000000000002 6.5000000000000009 3.5000000000000004 4.6333333333333337 1152.5000000000002 10.500000000000002 676.59944444444466
decision_type=2 2 2 2 2 2 2 2 2 8 2 8 2 8 8 8 2 2 2 2 8 2 2 2 2 2 8 2 2 10
left_child=1 4 6 8 7 -4 -2 21 26 23 14 -12 16 -14 18 -16 -13 -17 19 20 -11 -1 -23 -6 -24 -26 27 -3 -29 -28
right_child=2 3 5 -5 9 -7 -8 -9 -10 10 11 12 13 -15 15 17 -18 -19 -20 -21 -22 22 24 -25 25 -27 29 28 -30 -31
leaf_value=0.30831614406895358 0.016800660636145243 0.11454307211273787 -0.068332966372963697 0.06987138799038306 0.27016330501048408 -0.098697753651161818 -0.025650957600047326 0.27899020993687834 0.11637067462601652 0.48264437718498421 -0.0036726113681682404 -0.11059986678865624 0.37182060638968839 0.22885789451415112 0.48129313163871495 0.40453108110779801 0.19729873273162621 0.18379838733559875 -0.013651510963008547 -0.03935154578316194 0.14080671024008806 0.47246639605101032 0.40430080028572957 0.50391645930062356 0.068380229569409673 0.34972184996379119 0.19476120256408869 0.26132379953463447 0.073259224522771366 0.49526553273776885
leaf_weight=49.46264860779047 563.87472407519817 82.06085579097271 988.44946470856667 518.15604188293219 21.453453741967682 1629.848854675889 524.53510037064552 176.22462774813175 210.85131551325321 3.0338903665542647 3.7363732531666747 2.238529838621619 20.716282971203327 27.367325864732265 2.3580545783042899 3.8849841579794875 16.232862114906311 112.52135340124369 9.3002674803137761 4.2141960859298697 9.5531901344656944 19.701423980295658 14.402428336441519 3.5745139196515074 4.3501746729016286 7.5066471472382545 81.330594100058079 25.061235561966896 8.1956093385815603 1.815203584730624
leaf_count=420 8178 1027 15440 7078 227 26126 7966 1745 2706 35 43 26 236 311 24 46 187 1324 109 49 112 167 122 39 38 63 979 311 102 21
internal_value=0 0.157651 -0.0626938 0.101382 0.259612 -0.0872346 -0.00365796 0.303588 0.141273 0.209875 0.198979 0.240533 0.254243 0.290452 0.178816 0.196926 0.159985 0.191165 0.0964175 0.157346 0.223201 0.349013 0.392811 0.303548 0.333049 0.2465 0.167729 0.143508 0.214978 0.201322
internal_weight=0 1439.3 3706.71 927.471 511.833 2618.3 1088.41 271.648 409.315 240.185 215.157 70.2914 66.555 48.0836 144.866 118.764 18.4714 116.406 26.1015 16.8013 12.5871 95.4233 45.9607 25.028 26.2593 11.8568 198.463 115.318 33.2568 83.1458
internal_count=75257 17547 57710 12224 5323 41566 16144 2555 5146 2768 2502 803 760 547 1699 1394 213 1370 305 196 147 810 390 266 223 101 2440 1440 413 1000
is_linear=0
shrinkage=0.1


Tree=2
num_leaves=31
num_cat=0
split_feature=7 7 7 7 7 7 7 6 8 23 22 7 10 20 0 15 2 2 2 9 2 21 2 26 22 20 0 5 22 0
split_gain=3778.05 563.442 368.154 103.188 58.0487 46.0867 21.2959 18.3846 23.7989 21.9423 16.8066 16.682 15.3215 15.987 13.4597 14.8497 16.1654 16.0633 14.1709 19.894 18.1706 25.1946 16.3587 23.3165 14.2769 13.0881 13.0467 12.9205 12.8465 13.2042
threshold=8.6500000000000004 4.0500000000000007 19.650000000000002 2.4500000000000006 51.650000000000013 5.3500000000000005 12.450000000000001 1.0000000180025095e-35 3.5000000000000004 4.4142857142857155 21.450000000000003 1.5500000000000003 7.5000000000000009 1728.8166666666671 2021100439.5000002 1.0000000180025095e-35 428.50000000000006 1026.5000000000002 1055.5000000000002 53.500000000000007 1023.5000000000001 7.7750000000000012 1072.5000000000002 611.5548076923078 309.26500000000004 151.78333333333336 2020106420.0000002 527.00000000000011 204.42000000000004 2019106698.5000002
decision_type=2 2 2 2 2 2 2 2 2 10 8 2 2 10 2 10 2 2 2 2 2 10 2 10 10 8 2 2 10 2
left_child=1 3 6 11 -4 7 -2 8 -3 -10 -9 -1 13 -12 18 16 -16 -18 19 -5 21 -21 23 24 28 -22 -24 -7 -20 -30
right_child=2 5 4 14 -6 27 -8 10 9 -11 12 -13 -14 -15 15 -17 17 -19 22 20 25 -23 26 -25 -26 -27 -28 -29 29 -31
leaf_value=0.26222269910105245 0.0073864855732522191 0.10271663867623285 -0.065462442867777346 0.25272336921698807 -0.097263145756650432 0.048447320472294539 -0.023629441835129786 0.26478954922946973 0.13359965617055256 0.46806568657588843 0.038053140232135969 0.20606619107086016 0.13834603113817082 0.31569600934634284 0.4120073434015602 0.1308713560698678 0.040825969039327503 0.19592806332625226 0.17788388737435634 0.10213296560614236 0.11209649560526569 0.4643629293839997 0.14288655425161853 0.46987197061268438 0.08153389606858788 -0.032610537906133934 0.069098898556815821 -0.02882960397167433 0.14983351235623965 0.44721613138110972
leaf_weight=65.690648019313812 389.36552409827709 207.68876469135284 931.60484823584557 6.8130038753151885 1495.4036677330732 585.15131742507219 513.0916088744998 4.0001817196607581 4.5235842764377585 3.4630679190158844 114.73361716419458 271.66055332869291 19.729216314852238 2.1121055260300627 3.2360597774386397 64.02461127191782 7.184494160115718 94.579443596303463 16.144963748753074 25.618360519409183 9.341439902782442 2.075749196112155 216.78412196040154 3.0882772356271735 9.8103245422244054 18.88797490298748 26.940513052046299 22.466844707727432 2.2906910255551329 4.2880148366093636
leaf_count=409 5567 2510 15440 65 26126 7787 7966 48 57 44 1385 2146 240 25 32 649 75 956 161 265 96 20 2213 31 103 200 274 299 24 44
internal_value=0 0.114647 -0.0647794 0.174076 -0.0850565 0.0623333 -0.0102476 0.0908905 0.109231 0.278626 0.0627524 0.217001 0.0568349 0.0430718 0.145743 0.16883 0.191975 0.184978 0.134336 0.0913882 0.0717332 0.129283 0.143982 0.20728 0.182354 0.0152747 0.13473 0.04559 0.22588 0.343668
internal_weight=0 1812.33 3329.47 848.459 2427.01 963.869 902.457 356.251 215.675 7.98665 140.575 337.351 136.575 116.846 511.108 169.025 105 101.764 342.083 62.7365 55.9235 27.6941 279.347 35.6223 32.534 28.2294 243.725 607.618 22.7237 6.57871
internal_count=75257 20158 55099 7763 41566 12395 13533 4309 2611 101 1698 2555 1650 1410 5208 1712 1063 1031 3496 646 581 285 2850 363 332 296 2487 8086 229 68
is_linear=0
shrinkage=0.1


Tree=3
num_leaves=31
num_cat=0
split_feature=7 7 7 7 7 7 7 11 7 2 6 6 26 9 2 26 22 25 19 25 21 1 0 7 5 25 21 3 24 2
split_gain=2952.51 352.036 346.422 70.7054 57.4378 26.6836 18.8529 16.7888 14.009 14.9134 13.9504 12.9848 18.8442 21.4688 17.2692 22.9217 14.2225 14.179 13.8029 13.4058 12.8646 12.7502 12.1935 14.4677 14.7918 18.1859 24.2709 18.8033 12.6278 12.315
threshold=8.6500000000000004 4.1500000000000012 19.950000000000003 2.6500000000000008 51.650000000000013 5.2500000000000009 12.450000000000001 2.5000000000000004 1.9500000000000002 1019.0000000000001 18.500000000000004 1.5000000000000002 259.00833333333338 57.750000000000007 1124.5000000000002 496.32083333333338 412.66333333333341 3.660919540229886 2.8333333333333335 8.4558441558441579 2.7750000000000004 5373.0000000000009 2020104149.5000002 5.4500000000000011 509.00000000000006 5.3133928571428575 6.291666666666667 1.0000000180025095e-35 45.354166666666679 1144.5000000000002
decision_type=2 2 2 2 2 2 2 2 2 2 2 2 10 2 2 8 10 10 8 10 10 2 2 2 2 10 10 2 10 2
left_child=1 3 6 8 -4 11 -2 -5 -1 -10 -9 12 18 -14 15 17 -16 -15 -3 -13 -7 -11 -22 24 25 27 -27 -24 -25 -30
right_child=2 5 4 7 -6 20 -8 10 9 21 -12 19 13 14 16 -17 -18 -19 -20 -21 22 -23 23 28 -26 26 -28 -29 29 -31
leaf_value=0.18375448407670492 0.0066040105869171299 -0.023155609816669157 -0.062913741573628487 0.069011200510009821 -0.095833439549067589 0.0092171784933104337 -0.022455664963738783 0.12019933664714899 0.058176832424384262 0.14709019044269356 -0.11336869606699798 0.045274510120422419 0.10606088926748453 0.4870370185086027 0.2089214646249086 -0.1117356996924449 0.57389833460321993 0.16541113844842614 0.082470107462150721 0.29334241621019563 0.034684399631307462 0.22402918248461115 -0.075563540530900364 0.0065041249261029409 0.43809225254989859 0.44625866345758602 0.039157125048671658 0.20301929987742812 0.090873991722294281 0.030926329627117534
leaf_weight=213.91548250615597 391.8124822601676 13.649542361497877 863.53688568621874 79.067615948617458 1372.267416074872 112.10796587914228 518.94738798588514 457.49224472790956 16.967074133455753 198.59102223068476 2.571552261710166 121.10005446523428 39.570601850748062 2.0053675249218914 1.8748202919960011 2.1338910460472116 2.4800616726279259 4.3310821205377579 132.15881951153278 2.2183830961585036 338.742530785501 24.159305594861507 5.8183900788426417 38.79436719417572 1.6422032639384259 3.2325807437300673 2.6774367317557335 4.1516261473298073 100.37283258140087 52.032157421112061
leaf_count=1311 5567 153 15163 735 26126 1429 8243 4230 135 1506 25 1391 438 22 21 23 27 47 1467 23 4338 182 71 494 20 38 32 50 1284 666
internal_value=0 0.0940755 -0.0619416 0.136058 -0.0831188 0.0515937 -0.00995408 0.111578 0.165152 0.148551 0.118894 0.0752144 0.0910659 0.142503 0.25494 0.171736 0.416772 0.2672 0.0725822 0.049737 0.0400793 0.155435 0.0463992 0.0654116 0.15238 0.122834 0.261828 0.0404415 0.0574414 0.0704074
internal_weight=0 1973.86 3146.56 992.764 2235.8 981.095 910.76 539.131 453.633 239.717 460.064 321.523 198.204 52.3958 12.8252 8.47034 4.35488 6.33645 145.808 123.318 659.572 222.75 547.464 208.722 17.5222 15.88 5.91002 9.97002 191.199 152.405
internal_count=75257 20158 55099 8124 41289 12034 13810 4990 3134 1823 4255 3612 2198 578 140 92 48 69 1620 1414 8422 1688 6993 2655 211 191 70 121 2444 1950
is_linear=0
shrinkage=0.1


Tree=4
num_leaves=31
num_cat=0
split_feature=7 7 7 7 7 7 7 9 25 9 11 25 20 7 5 11 24 9 8 7 14 2 25 5 2 0 20 26 26 24
split_gain=2364.26 371.398 168.082 52.2953 47.1054 24.136 24.0662 14.7334 12.5711 14.0084 22.2707 23.327 17.5655 14.1177 14.7879 12.3965 12.1564 12.801 12.0719 11.9334 13.3032 11.854 11.5534 11.8879 11.3549 11.1226 18.0895 12.5823 10.8922 16.2816
threshold=12.450000000000001 4.1500000000000012 32.050000000000004 7.4500000000000011 2.6500000000000008 64.550000000000011 19.650000000000002 53.500000000000007 9.4309523809523821 56.250000000000007 14.500000000000002 5.7374686716791983 511.75000000000006 5.3500000000000005 501.00000000000006 2.5000000000000004 596.8950000000001 57.250000000000007 3.5000000000000004 1.5500000000000003 1550.0000000000002 1103.5000000000002 8.2022727272727298 497.00000000000006 1183.5000000000002 2019101742.0000002 220.13333333333335 125.25543478260872 552.98956521739137 210.16500000000002
decision_type=2 2 2 2 2 2 2 2 10 2 2 10 10 2 2 2 10 2 2 2 8 2 8 2 2 2 10 8 8 10
left_child=1 4 6 8 19 -4 22 -6 9 12 13 25 -3 14 -11 28 -16 -18 -15 -1 24 -13 -2 -24 -21 -12 27 -27 29 -9
right_child=2 3 5 -5 7 -7 -8 15 -10 10 11 21 -14 18 16 -17 17 -19 -20 20 -22 -23 23 -25 -26 26 -28 -29 -30 -31
leaf_value=0.16858262395739426 -0.026645053159249095 0.04514537324668514 -0.071310681451873456 0.010852910868578343 0.14444022621620645 -0.096818841808606254 -0.052088185660094044 0.074246938480125521 0.17842805972037137 0.060532382641880857 -0.02992662250091882 0.22776459749336919 -0.016147993663545548 0.014468080166217949 0.11459266107434418 0.093469055316674529 0.42208951273132939 0.088746232458539839 0.075099547507438538 0.16092477552141693 0.11466677576102172 0.59776376066897707 0.03215300502332314 -0.070373678053264527 0.049106386297226669 0.19092322450809993 0.31787149719741437 -0.11061764959787812 0.136416150843198 -0.028475994519282267
leaf_weight=82.539231732487679 412.6518007516861 492.27073873579502 561.73910533264279 589.84381758421659 49.176960743963718 1092.125982105732 438.58137752488256 39.044764205813408 7.5311497449874869 81.628359712660313 3.6959236189723041 1.7706429585814469 51.662543192505836 85.122077345848083 33.959273941814899 459.21980927139521 2.8058871030807486 1.9544704630970953 53.463065765798092 125.18678592145443 283.30808701366186 1.6945977881550787 66.784749060869217 13.614622645080088 9.7917766496539098 2.9768998771905881 4.6584804281592369 2.5857168436050415 12.275400899350641 25.511780999600887
leaf_count=409 6667 5628 10783 8178 397 22716 8067 347 72 862 42 20 587 1027 359 3910 29 18 644 820 1841 20 1079 220 64 33 52 30 105 231
internal_value=0 0.0673173 -0.0690185 0.033606 0.111321 -0.0881549 -0.0350469 0.0920546 0.0498189 0.0486381 0.0669735 0.176547 0.0393238 0.0596178 0.0846747 0.0872488 0.135571 0.285228 0.0378584 0.133833 0.126976 0.408704 -0.0198882 0.0147914 0.152813 0.118741 0.172499 0.0507555 0.0500709 0.0336524
internal_weight=0 2503.68 2585.5 1417.62 1086.05 1653.87 931.633 585.229 827.78 820.249 276.315 17.3823 543.933 258.933 120.348 536.052 38.7196 4.76036 138.585 500.826 418.287 3.46524 493.051 80.3994 134.979 13.917 10.2211 5.56262 76.8319 64.5565
internal_count=75257 25725 49532 17601 8124 33499 16033 4990 9423 9351 3136 197 6215 2939 1268 4593 406 47 1671 3134 2725 40 7966 1299 884 157 115 63 683 578
is_linear=0
shrinkage=0.1


Tree=5
num_leaves=31
num_cat=0
split_feature=7 7 7 7 7 7 7 7 11 22 26 24 0 20 6 19 1 1 7 22 11 9 7 20 25 0 0 26 5 26
split_gain=1938.03 263.313 163.469 38.8098 35.2655 25.0024 21.5541 10.417 17.9249 11.0419 13.1104 13.7267 12.985 10.9752 10.1851 15.3003 12.0892 16.2614 13.9433 10.1493 9.63437 14.6519 9.25703 11.0128 10.543 10.6265 17.5348 8.67722 8.67345 8.58032
threshold=12.450000000000001 4.1500000000000012 32.050000000000004 7.4500000000000011 2.1500000000000008 64.550000000000011 19.650000000000002 3.2500000000000004 9.5000000000000018 719.98000000000013 136.3484848484849 73.160000000000011 2020106643.0000002 128.73333333333335 -3.4999999999999996 9.1666666666666696 1170.5000000000002 1191.5000000000002 6.0500000000000007 10.010000000000002 15.500000000000002 55.750000000000007 4.3500000000000005 89.833333333333357 3.9183333333333334 2019105562.0000002 2020103801.5000002 657.47500000000002 533.00000000000011 265.06666666666678
decision_type=2 2 2 2 2 2 2 2 2 10 8 10 2 8 2 8 2 2 2 10 2 2 2 10 8 2 2 10 2 8
left_child=1 4 6 14 -1 -4 19 8 9 10 11 12 -6 -12 15 20 18 -18 -17 -2 22 -22 23 -3 -25 -26 -27 -15 29 -10
right_child=2 3 5 -5 7 -7 -8 -9 28 -11 13 -13 -14 27 -16 16 17 -19 -20 -21 21 -23 -24 24 25 26 -28 -29 -30 -31
leaf_value=0.12046005813436683 0.012111197226114603 0.29954752417786562 -0.068637094690581948 0.0096737740418398315 0.028974839592353807 -0.095548375533642982 -0.0492210141520526 0.069734216672672392 0.13397514740168989 0.0091844177124351025 0.19071115829969298 0.020692336803472787 0.17765324223710321 0.088556551318626983 0.036489995726339576 -0.11310881586068576 0.51145583463044342 0.1194325189368001 0.23354771920173648 -0.025144552927412519 0.026276910270486811 0.34554927436968857 0.0459118240980117 0.19782090543344996 -0.1132261786648666 0.29302590622545938 -0.051880507478872434 0.26400263259214585 0.24119558551385276 0.082650142471246704
leaf_weight=335.47921817004681 89.737187184393406 2.9015593081712749 527.07555760443211 595.26209004968405 10.536826215684416 1000.6759481281042 418.77141232416034 376.17277742177248 92.411070831120014 21.460036166012287 11.750443771481512 53.893499813973904 13.27454951405525 189.79296474903822 640.60762623697519 2.0921212732791883 2.0812943875789642 2.1523816287517548 2.6050543040037155 394.94278774783015 2.916009157896041 2.8346729651093483 188.49378325790167 5.4305981695651981 3.5684118792414665 2.7049743682146072 3.2390001490712166 2.8614888340234748 5.7458781078457823 50.302031569182873
leaf_count=1808 1447 27 10783 8178 71 22716 8067 3109 619 153 78 407 87 1382 7043 21 21 22 28 6519 33 29 2058 49 35 26 31 21 38 351
internal_value=0 0.0576399 -0.0663236 0.0293102 0.0931078 -0.086264 -0.0326041 0.0820282 0.0922591 0.0783334 0.0835935 0.0486295 0.111861 0.0968851 0.0428762 0.0613861 0.189604 0.312153 0.079147 -0.0182468 0.055987 0.183655 0.0524289 0.121269 0.0866517 0.0231854 0.105079 0.0911624 0.120735 0.115885
internal_weight=0 2620.57 2431.2 1456.89 1163.68 1527.75 903.451 828.202 452.029 303.57 282.11 77.7049 23.8114 204.405 861.627 221.02 8.93085 4.23368 4.69718 484.68 212.089 5.75068 206.338 17.8445 14.943 9.51239 5.94397 192.654 148.459 142.713
internal_count=75257 25725 49532 17601 8124 33499 16033 6316 3207 2199 2046 565 158 1481 9423 2380 92 43 49 7966 2288 62 2226 168 141 92 57 1403 1008 970
is_linear=0
shrinkage=0.1


Tree=6
num_leaves=31
num_cat=0
split_feature=7 7 7 7 7 7 7 20 5 23 20 5 9 24 25 8 1 2 0 22 0 24 16 2 20 0 3 4 2 26
split_gain=1610.06 226.53 121.03 47.8704 25.2904 19.076 11.0693 11.059 11.2628 12.0957 10.3669 10.0018 20.4699 12.0592 10.9402 10.5584 12.599 12.3132 9.49959 13.6182 11.8921 26.0179 24.9036 16.3714 11.2436 13.3561 13.6442 13.3975 10.1578 15.2612
threshold=14.350000000000003 5.2500000000000009 51.650000000000013 2.9500000000000006 24.250000000000004 8.6500000000000004 1.5500000000000003 69.833333333333357 517.00000000000011 3.4142857142857146 41.583333333333336 437.00000000000006 56.750000000000007 77.50500000000001 5.2540322580645169 5.5000000000000009 1121.0000000000002 1125.5000000000002 2020104348.5000002 320.05000000000007 2020110048.5000002 228.28500000000005 1.0000000180025095e-35 1140.5000000000002 116.81666666666668 2020106209.5000002 1.0000000180025095e-35 3.5000000000000004 1054.5000000000002 97.84142857142858
decision_type=2 2 2 2 2 2 2 10 2 10 8 2 2 10 10 2 2 2 2 10 2 8 2 2 10 2 2 2 2 10
left_child=1 3 4 6 -2 11 -1 -7 -9 -10 -8 12 -3 -13 -14 18 -17 -18 -15 20 21 24 23 -23 25 27 -27 -20 -22 -30
right_child=2 5 -4 -5 -6 7 10 8 9 -11 -12 13 14 15 -16 16 17 -19 19 -21 28 22 -24 -25 -26 26 -28 -29 29 -31
leaf_value=0.12406690521871899 -0.027752473349430103 -0.021160744964156208 -0.091489316102943363 0.056813110242166245 -0.058411270790099883 0.017753183044648003 0.19160361212072186 -0.016745821230928108 0.22053377015800413 0.024407839787678146 0.085168730607256382 0.0087425783167560736 0.011395267422938329 0.027302365392508632 0.34593348278613362 -0.051036293625353252 0.4507972768972856 0.095949144737505543 0.012002483750394893 -0.003934858152540098 -0.024624004345637496 -0.0087894543550392466 0.51267374134183763 0.35454537136638686 0.022428257619623786 0.12892610560419376 0.42719618232117373 0.26858602755973043 0.17471077396632864 0.042606969425371927
leaf_weight=91.805050864815712 508.40990249812603 70.441503703594208 1064.8174594193697 901.29622308164835 571.5097623243928 234.47486254945397 9.293947905302046 285.91234657168388 3.6513515189290073 22.656290587037802 596.03068998456001 187.55863060057163 1.6468340903520573 309.98912306129932 2.4052785336971283 1.7146236672997464 1.9633769243955614 1.9481909945607183 8.9320200756192225 28.142841972410679 15.007934920489786 2.9324415177106848 2.8866134732961655 2.1489325016736984 17.956197895109653 3.7466168180108061 2.5965408608317375 2.6354486048221579 10.820259399712084 45.595578230917454
leaf_count=409 9026 822 26126 7689 11951 3421 52 4189 53 333 3586 2195 20 3657 27 22 25 25 100 330 167 33 33 25 202 42 28 30 119 520
internal_value=0 0.0469959 -0.0675662 0.072033 -0.0439776 0.0154286 0.0917102 0.00134092 -0.0109846 0.051629 0.0868029 0.0261096 -0.00858815 0.0301072 0.209973 0.0388369 0.174986 0.274062 0.0371475 0.0584295 0.073657 0.114659 0.278114 0.144866 0.0783467 0.134407 0.251022 0.0704606 0.048493 0.0679438
internal_weight=0 2866.19 2144.74 1598.43 1079.92 1267.76 697.13 546.695 312.22 26.3076 605.325 721.069 74.4936 646.575 4.05211 459.017 5.62619 3.91157 453.391 143.401 115.259 43.8348 7.96799 5.08137 35.8668 17.9106 6.34316 11.5675 71.4238 56.4158
internal_count=75257 28154 47103 11736 20977 16418 4047 7996 4575 386 3638 8422 869 7553 47 5358 72 50 5286 1629 1299 493 91 58 402 200 70 130 806 639
is_linear=0
shrinkage=0.1


Tree=7
num_leaves=31
num_cat=0
split_feature=7 7 7 7 7 7 5 6 26 11 18 14 2 6 26 2 26 11 0 24 26 13 7 3 25 19 2 22 17 2
split_gain=1342.12 171.425 119.501 31.256 23.2285 19.0259 12.2009 12.1506 9.422 9.06447 16.9014 12.2534 11.6909 11.5175 11.2172 15.8356 20.4386 9.03737 8.95208 8.78433 15.3739 12.0394 13.6892 14.6375 11.2439 11.2372 8.72504 8.62729 8.38361 18.4782
threshold=14.350000000000003 4.8500000000000005 51.650000000000013 2.4500000000000006 24.250000000000004 8.6500000000000004 437.00000000000006 -3.4999999999999996 48.223809523809528 4.5000000000000009 6.5000000000000009 1750.0000000000002 1168.5000000000002 -4.4999999999999991 210.01136363636365 1096.5000000000002 116.54666666666667 8.5000000000000018 2020102555.5000002 596.8950000000001 330.83854166666669 1.0000000180025095e-35 5.6500000000000012 1.0000000180025095e-35 6.4959016393442637 5.5833333333333348 1175.5000000000002 894.31000000000017 1.5000000000000002 1058.5000000000002
decision_type=2 2 2 2 2 2 2 2 10 2 2 10 2 2 10 2 10 2 2 10 8 8 2 2 10 10 2 10 2 2
left_child=1 3 4 -1 -2 6 17 9 -7 10 11 14 -13 -11 15 16 -8 -3 -16 20 21 24 -23 25 -15 -24 -19 -21 29 -9
right_child=2 5 -4 -5 -6 8 7 28 -10 13 -12 12 -14 19 18 -17 -18 26 -20 27 -22 22 23 -25 -26 -27 -28 -29 -30 -31
leaf_value=0.084408125828283539 -0.025629762931245081 0.015049158520002347 -0.089964295941455497 0.054056628901610386 -0.055573397050921472 0.024073310617082504 0.33481593402037196 -0.044340053421568687 -0.0063397615910831141 0.041837517728596153 -0.039483024054708861 -0.040459045981373787 0.21420172676061014 0.10509607476934651 0.39823347932048669 -0.052506125463603892 -0.0624228623229666 -0.070181239703438647 0.1172169228596113 0.39040176887412714 -0.061043252088539002 0.32928411199407676 0.11102499911766694 -0.032778975089669295 -0.047056110873058193 0.39967205032529118 0.086143091571903488 0.094155901188924751 0.031526141780476712 0.022395081284931822
leaf_weight=504.76180870831013 496.13279263675213 53.201871506869793 978.99993985146284 1034.9977565929294 542.17813477665186 135.31020369753242 3.5836595967412013 53.956733636558056 412.10770837590098 91.059750132262707 27.734291709959507 11.25802046060562 2.1463926136493674 23.053981885313991 2.3571509495377532 5.0761555433273315 2.0283232480287552 29.465526580810547 2.1838630214333534 1.9920184537768357 6.004671446979045 4.5079399868845931 3.6052432507276517 3.8534974008798599 6.1532391831278792 2.1548568084836006 4.0626557990908614 1.9407947286963461 344.02017641067505 179.58356581628323
leaf_count=2555 9026 612 26126 7914 11951 1941 40 610 6055 991 305 124 23 250 27 56 22 339 24 22 68 43 41 45 67 25 47 21 3870 2017
internal_value=0 0.0409273 -0.064899 0.0640064 -0.0412655 0.0157671 0.0250002 0.028965 0.00117771 0.0501618 0.0161554 0.0700464 0.000318719 0.0634433 0.131419 0.0754784 0.191243 -0.0105767 0.263087 0.100379 0.0889129 0.109694 0.185503 0.118082 0.0730414 0.219008 -0.0512392 0.244208 0.0215994 0.00697671
internal_weight=0 2952.16 2017.31 1539.76 1038.31 1412.4 864.984 778.254 547.418 200.694 56.3679 28.6336 13.4044 144.326 15.2292 10.6881 5.61198 86.7301 4.54101 53.2662 49.3334 43.3288 14.1215 9.6136 29.2072 5.7601 33.5282 3.93281 577.56 233.54
internal_count=75257 28154 47103 10469 20977 17685 9689 8691 7996 2194 621 316 147 1573 169 118 62 998 51 582 539 471 154 111 317 66 386 43 6497 2627
is_linear=0
shrinkage=0.1


Tree=8
num_leaves=31
num_cat=0
split_feature=7 7 7 7 7 7 23 7 2 1 6 5 0 6 0 18 0 20 16 25 2 23 22 5 0 22 26 9 15 0
split_gain=1123.25 137.806 110.59 27.5348 19.0121 18.1329 8.28927 8.24064 8.11376 8.30341 8.03047 11.506 13.1099 15.8832 8.65449 10.1411 10.8485 8.31461 8.24983 7.9047 8.72606 7.78714 9.06891 11.3111 10.459 10.0879 8.94249 7.96202 10.868 7.61765
threshold=14.850000000000003 4.0500000000000007 51.650000000000013 7.4500000000000011 24.250000000000004 1.9500000000000002 12.366666666666669 133.15000000000001 1054.5000000000002 5623.0000000000009 -4.4999999999999991 487.00000000000006 2020110048.5000002 -6.4999999999999991 2021106363.0000002 5.5000000000000009 2021106682.5000002 233.5 2.5000000000000004 9.6733333333333338 1150.5000000000002 9.3541666666666696 76.830000000000027 495.00000000000006 2020100105.5000002 66.02000000000001 86.671568627450995 54.500000000000007 1.0000000180025095e-35 2021104663.5000002
decision_type=2 2 2 2 2 2 10 2 2 2 2 2 2 2 2 2 2 10 2 10 2 10 10 2 2 10 10 2 8 2
left_child=1 5 4 19 29 -1 -5 -4 9 -7 11 18 -13 -14 21 17 -17 -16 -10 -3 -21 22 23 25 -25 -12 -24 -27 -29 -2
right_child=2 3 7 6 -6 8 -8 -9 10 -11 14 12 13 -15 15 16 -18 -19 -20 20 -22 -23 26 24 -26 27 -28 28 -30 -31
leaf_value=0.082470709194599104 -0.019605536425385893 0.027547828015435916 -0.078929356727301517 0.0028182549062281833 -0.05274700998297023 0.031282675363420012 0.19170295206448465 -0.09805955250674446 0.049015886242184586 0.19592957370020145 0.08008147187333442 0.086923395554644969 0.1081077994973092 0.32655472018442394 0.11175843633255611 0.1776196965155746 0.016437767995433124 0.26039768622502529 0.20328285617382949 0.059300624102599765 0.28064753558763672 -0.08362825861454827 -0.015758722694811905 0.16878720441780271 0.0021033745470547178 0.29008209081318687 0.049063380423635124 0.2184940303274058 0.022702842136847312 -0.058747111065319817
leaf_weight=285.23074279725552 390.99520394206047 979.35419841855764 455.25567840784788 791.05824008956552 515.52185171470046 170.60440711677074 2.3302375599741927 445.55259592086077 67.749169982969761 3.1190139278769484 66.573521248996258 33.185488447546959 7.6035257428884506 5.9199597015976888 20.164079174399379 5.2609847635030773 20.244126729667187 4.6269037425518027 3.6535031199455252 6.12910547852516 2.5105638429522514 4.2740570306777945 22.1978624984622 4.3908322304487255 26.388201504945755 4.0568168312311164 515.80338153243065 6.0623806864023182 5.3255905508995065 56.965681616216898
leaf_count=1311 7322 9718 13080 11224 11951 1133 32 13046 442 21 421 210 46 36 127 33 127 28 24 46 20 25 150 28 166 25 3340 37 33 1055
internal_value=0 0.0352415 -0.0632027 0.0172469 -0.0396525 0.0602371 0.00337302 -0.0883914 0.0538776 0.0342387 0.0580207 0.0821533 0.120743 0.203734 0.0539797 0.0939549 0.0496851 0.1395 0.0569094 0.028388 0.123621 0.0509105 0.051794 0.0775748 0.0258819 0.0969737 0.0463888 0.169786 0.126932 -0.024583
internal_weight=0 3063.82 1864.29 1781.38 963.483 1282.43 793.388 900.808 997.204 173.723 823.48 118.112 46.709 13.5235 705.369 50.2961 25.5051 24.791 71.4027 987.994 8.63967 655.073 650.799 112.797 30.779 82.0183 538.001 15.4448 11.388 447.961
internal_count=75257 28803 46454 21040 20328 7763 11256 26126 6452 1154 5298 758 292 82 4540 315 160 155 466 9784 66 4225 4200 710 194 516 3490 95 70 8377
is_linear=0
shrinkage=0.1


Tree=9
num_leaves=31
num_cat=0
split_feature=7 7 7 7 7 25 19 16 10 0 5 7 7 18 8 14 5 5 20 6 25 0 11 21 21 19 17 22 2 25
split_gain=953.193 139.906 70.9934 24.2039 18.2683 11.3177 13.2331 23.2941 22.7148 24.7422 16.4921 9.37453 8.92541 8.85978 12.0335 11.3375 7.85166 7.6484 7.55397 7.36247 12.0882 9.3838 8.8352 8.08267 13.6968 9.95687 7.64372 13.0546 9.72682 12.3598
threshold=18.750000000000004 5.2500000000000009 64.550000000000011 3.2500000000000004 8.6500000000000004 8.2022727272727298 8.5833333333333339 1.0000000180025095e-35 6.5000000000000009 2021102512.5000002 465.00000000000006 1.5500000000000003 32.050000000000004 5.5000000000000009 6.5000000000000009 2050.0000000000005 529.00000000000011 555.00000000000011 201.70000000000002 1.0000000180025095e-35 8.4558441558441579 2021105936.0000002 10.500000000000002 3.7750000000000004 2.6333333333333337 4.5833333333333348 3.5000000000000004 354.78000000000003 426.00000000000006 4.6619047619047631
decision_type=2 2 2 2 2 8 8 2 2 2 2 2 2 2 2 8 2 2 10 2 10 2 2 10 8 10 2 10 2 10
left_child=1 3 12 11 16 -6 7 8 9 -7 -10 18 -2 -8 15 -15 -3 19 -1 26 21 -21 23 24 -23 -25 27 28 29 -5
right_child=2 4 -4 17 5 6 13 -9 10 -11 -12 -13 -14 14 -16 -17 -18 -19 -20 20 -22 22 -24 25 -26 -27 -28 -29 -30 -31
leaf_value=0.052120956923342093 -0.036612646690494487 0.019161063014888707 -0.090320233746193135 0.24244741590255911 -0.0092731925931608811 0.012396886432165872 -0.022545693045712176 -0.067115794437753895 0.68057295204204671 0.48858974139285866 0.20885175562359348 0.054878227549493799 -0.057482112643683608 0.047221986111517532 -0.05659753562455945 0.34257942707769617 -0.039322955528930774 0.17041253775166787 0.10919924733788662 0.015881472031233076 0.18409496555233451 0.20523622955294965 -0.021315430216042795 0.3696220067707286 -0.087017579145867094 0.11704361217687481 0.064480005365626786 -0.034775779861009756 0.037166382852715785 0.0223004948134869
leaf_weight=37.387052282691002 404.67564356327057 740.98277345299721 713.45698327198625 5.2788453772664052 685.28384961932898 5.8364817947149259 45.69902603700757 4.9352175481617442 1.3952685520052912 1.3420062623918054 1.5809008404612539 829.26033956557512 415.17878215014935 53.459059648215771 11.885203346610067 1.332013115286826 23.689407393336296 4.1487218514084807 61.044365927577019 300.02615009993315 4.5602481812238684 3.0788227170705813 5.1531772539019576 2.4684253111481667 3.3467917665839195 4.2443857789039612 114.48042652755976 25.001426160335541 371.21642937511206 4.9339131340384483
leaf_count=158 8911 8150 22716 43 10768 91 685 76 21 21 25 4606 10783 788 194 20 272 32 251 2451 31 24 42 21 28 34 890 193 2894 38
internal_value=0 0.0279266 -0.0672539 0.0471795 0.00625455 -0.00418386 0.0231777 0.111106 0.197722 0.10142 0.430001 0.0583416 -0.0471811 0.0113706 0.0346164 0.0544024 0.0173492 0.0349675 0.0875193 0.0343015 0.0224368 0.0201209 0.0896573 0.133183 0.0530154 0.209921 0.0416557 0.0352267 0.0398151 0.136092
internal_weight=0 3353.05 1533.31 1775.63 1577.42 812.749 127.465 15.0899 10.1547 7.17849 2.97617 927.692 819.854 112.375 66.6763 54.7911 764.672 847.938 98.4314 843.789 322.878 318.318 18.2916 13.1384 6.42561 6.71281 520.911 406.431 381.429 10.2128
internal_count=75257 32847 42410 11736 21111 12689 1921 234 158 112 46 5015 19694 1687 1002 808 8422 6721 409 6689 2631 2600 149 107 52 55 4058 3168 2975 81
is_linear=0
shrinkage=0.1


Tree=10
num_leaves=31
num_cat=0
split_feature=7 7 7 7 7 0 25 5 5 2 0 2 0 14 19 5 5 9 18 23 18 22 21 21 21 5 20 19 22 11
split_gain=809.758 114.423 63.7517 19.5821 17.5321 8.50486 11.0936 11.2723 17.0939 16.3762 10.6775 11.1896 9.44316 8.1756 9.2163 7.54436 9.1211 6.68546 13.3026 12.185 20.2502 12.01 9.75607 13.7895 9.22479 7.76649 7.98246 7.95288 7.72738 12.5804
threshold=19.650000000000002 5.2500000000000009 64.550000000000011 2.6500000000000008 12.450000000000001 2021107023.5000002 8.2022727272727298 459.00000000000006 455.00000000000006 1111.5000000000002 2019110001.5000002 1081.5000000000002 2021106537.5000002 1550.0000000000002 8.4166666666666696 447.00000000000006 451.00000000000006 52.500000000000007 8.5000000000000018 4.8819444444444455 2.5000000000000004 132.62000000000003 7.366666666666668 6.7750000000000012 4.1000000000000005 425.00000000000006 72.13333333333334 4.8333333333333348 178.02000000000004 8.5000000000000018
decision_type=2 2 2 2 2 2 8 2 2 2 2 2 2 10 8 2 2 2 2 8 2 10 10 10 8 2 10 10 10 2
left_child=1 3 -2 -1 17 6 -6 8 13 -10 11 -9 -12 -8 -15 -16 -17 18 19 20 -3 22 23 25 -20 -21 -27 -28 29 -22
right_child=2 4 -4 -5 5 -7 7 10 9 -11 12 -13 -14 14 15 16 -18 -19 24 21 28 -23 -24 -25 -26 26 27 -29 -30 -31
leaf_value=0.055332150377214333 -0.046046603550198871 0.40684319146900932 -0.088878206405442584 0.033653676308700885 -0.016323084670685908 -0.086399292593536625 -0.015057191343837081 0.37657866693369835 0.01852504417096025 0.43190651868365804 -0.029271626187196365 -0.029176822508102662 0.19411879720782765 0.32338042777748566 0.017777585318138969 0.38743801100506942 0.030741563323472172 0.0096559934780217332 0.13162564817394959 0.26500218818851518 0.36695910665823039 -0.091941895516825425 -0.023774743121218259 0.32037530761275951 -0.065522024530312029 -0.016314235421133388 0.027034821503964569 0.30671053886889732 -0.022920161726659033 -0.0013664638084793814
leaf_weight=645.94131917506456 739.57984515279531 2.7012496218085271 655.5123341307044 1173.9834494292736 367.59306028112769 14.791005179286001 11.910333376377826 1.4473424665629857 1.5925712585449212 2.4062959440052509 38.582961022853851 1.2813557833433149 1.9898856207728375 1.6183507554233045 8.0107204504311067 1.4154604896903049 1.4525602646172044 1122.6387460827827 2.8882059976458576 1.8694647401571369 1.8809260129928591 5.2567594349384299 6.930408462882041 2.7875302433967581 13.315845407545565 7.4503336995840055 2.1774598807096481 1.9074012041091917 3.4258581399917603 1.8290948271751402
leaf_count=3134 18850 31 22716 8602 6544 255 191 24 26 36 636 21 32 23 131 23 24 13339 34 24 21 62 85 34 160 90 26 20 41 22
internal_value=0 0.0241095 -0.0661719 0.041348 0.00487595 -0.0118156 -0.00930442 0.0266751 0.0756266 0.267275 -0.00543767 0.186042 -0.0183155 0.0442273 0.100728 0.067606 0.206783 0.0113153 0.0455452 0.077739 0.173647 0.0444944 0.0755123 0.118008 -0.0303825 0.0759253 0.0452824 0.157628 0.0853717 0.185369
internal_weight=0 3451.08 1395.09 1819.92 1631.15 454.092 439.301 71.7078 28.4063 3.99887 43.3015 2.7287 40.5728 24.4074 12.4971 10.8787 2.86802 1177.06 54.4205 38.2165 9.83713 28.3794 23.1226 16.1922 16.2041 13.4047 11.5352 4.08486 7.13588 3.71002
internal_count=75257 33691 41566 11736 21955 7966 7711 1167 454 62 713 45 668 392 201 178 47 13989 650 456 115 341 279 194 194 160 136 46 84 43
is_linear=0
shrinkage=0.1


Tree=11
num_leaves=31
num_cat=0
split_feature=7 7 7 7 7 7 11 14 5 1 18 20 0 22 0 21 21 24 24 6 25 1 20 26 5 23 25 19 26 20
split_gain=688.035 89.6903 63.1987 16.9044 14.2633 7.75407 7.90997 12.3824 8.05757 13.8397 11.1072 7.66513 7.61128 9.99163 7.56104 10.485 8.81048 8.20457 8.12674 7.61753 7.13493 7.40249 7.10969 11.7602 11.0278 7.36453 13.8492 7.09075 11.0695 13.9153
threshold=19.650000000000002 5.2500000000000009 64.550000000000011 1.9500000000000002 12.450000000000001 3.5500000000000003 9.5000000000000018 2450.0000000000005 487.00000000000006 1094.0000000000002 4.5000000000000009 199.03333333333339 2021107023.5000002 10.010000000000002 2020103715.0000002 6.9000000000000012 3.2250000000000005 253.49500000000003 139.3366666666667 -6.4999999999999991 5.5568475452196386 729.00000000000011 147.90000000000001 121.20344827586209 533.00000000000011 4.6458333333333348 6.1913919413919425 3.166666666666667 385.04000000000002 433.50000000000006
decision_type=2 2 2 2 2 2 2 10 2 2 2 10 2 10 2 10 10 8 10 2 10 2 8 10 2 10 10 8 10 10
left_child=1 3 -2 -1 -3 6 7 14 9 -9 -11 -12 13 -6 20 16 17 18 -16 -19 21 -5 23 25 -24 -8 -27 -7 -29 -30
right_child=2 4 -4 5 12 27 22 8 -10 10 11 -13 -14 -15 15 -17 -18 19 -20 -21 -22 -23 24 -25 -26 26 -28 28 29 -31
leaf_value=0.058031883493145808 -0.043333356583918896 0.010033083199265045 -0.087377167479317175 -0.065272792472066521 0.023460392543199666 0.0087680797212950617 0.0028828539385433749 0.26261397076518345 0.028941792460808191 -0.073687856282834432 0.017727220611535959 0.20728310809605574 -0.084245411582900387 -0.015723866038921213 -0.05074747725811582 0.14335762938527724 0.015441005385970794 -0.087867202655613541 0.097679270485965086 0.041689743543438976 -0.027766939129893999 0.026369747405721389 0.036168034033400021 0.12794903918075554 0.15842732301757811 0.12260321013993757 0.0029308796773706357 0.026051784154112068 0.14981955663935961 0.038701739706173223
leaf_weight=302.15096493065357 708.93720149621367 1188.1498245447874 602.81137653440237 9.240870498120783 79.6103805154562 202.19635704159737 21.052386149764061 5.8463792726397577 11.547997012734411 3.5421501100063315 3.442659839987753 5.6087786853313446 13.708363637328146 356.41177450865507 4.0208293944597235 9.3523476719856244 121.15275524556637 4.745435655117034 44.679471731185913 103.96932272613049 33.433259025216103 190.90788754075766 173.80097158253193 29.165434747934341 7.7048588320612899 24.709140099585056 15.888376057147978 479.63525277376175 16.721856877207756 34.567494630813599
leaf_count=1311 18850 13989 22716 54 1308 1599 116 34 64 21 21 32 255 6403 26 51 703 28 251 593 198 1122 965 155 40 133 85 3745 129 260
internal_value=0 0.021354 -0.0635736 0.0363861 0.0042918 0.0321853 0.0388427 0.0319571 0.0944439 0.135465 0.0764373 0.135187 -0.0108762 -0.00856947 0.0283639 0.0392093 0.0357127 0.0513146 0.0854248 0.0360345 0.0149955 0.0221386 0.0527872 0.07563 0.0413579 0.0508789 0.0757679 0.0247044 0.0307736 0.0749295
internal_weight=0 3496.96 1311.75 1859.08 1637.88 1556.93 823.811 551.49 29.988 18.44 12.5936 9.05144 449.731 436.022 521.502 287.92 278.568 157.415 48.7003 108.715 233.582 200.149 272.321 90.8153 181.506 61.6499 40.5975 733.121 530.925 51.2894
internal_count=75257 33691 41566 11736 21955 10425 4692 3198 172 108 74 53 7966 7711 3026 1652 1601 898 277 621 1374 1176 1494 489 1005 334 218 5733 4134 389
is_linear=0
shrinkage=0.1


Tree=12
num_leaves=31
num_cat=0
split_feature=7 7 7 7 7 19 7 6 2 5 2 9 22 2 5 11 2 5 14 22 20 0 21 5 7 0 0 17 1 23
split_gain=584.896 70.3365 62.3183 13.7003 12.5027 7.7901 7.31261 7.5586 7.46235 11.0117 9.58666 12.7217 12.566 8.48879 6.91373 6.73963 11.6731 9.64025 9.77322 9.64659 7.58671 15.3605 7.22551 8.94377 6.82062 6.65117 11.9777 10.0781 9.57107 13.5952
threshold=19.650000000000002 5.2500000000000009 66.950000000000017 1.9500000000000002 8.6500000000000004 7.8333333333333348 32.050000000000004 11.500000000000002 1017.5000000000001 487.00000000000006 1134.5000000000002 57.750000000000007 23.950000000000003 1148.5000000000002 409.00000000000006 15.500000000000002 1097.5000000000002 511.00000000000006 1950.0000000000002 39.900000000000006 211.01666666666668 2020100700.5000002 2.7750000000000004 527.00000000000011 5.5500000000000007 2020106209.5000002 2020106541.0000002 1.5000000000000002 1068.5000000000002 7.8166666666666673
decision_type=2 2 2 2 2 8 2 2 2 2 2 2 10 2 2 2 2 2 8 10 10 2 10 2 2 2 2 2 2 8
left_child=1 3 6 -1 15 -6 7 -2 9 -9 -10 12 -12 -14 -5 22 -17 18 19 -18 -21 -22 24 25 -3 27 -27 -24 29 -29
right_child=2 4 -4 14 5 -7 -8 8 10 -11 11 -13 13 -15 -16 16 17 -19 -20 20 21 -23 23 -25 -26 26 -28 28 -30 -31
leaf_value=0.05148458739066606 -0.033751000194021774 -0.073111203428779276 -0.086339918832921914 -0.058211163784712951 -0.010692620365921165 0.010277856551277257 -0.050553176845408249 -0.0027259591357670938 -0.046782529908483451 0.48997119123106575 0.35165502236813811 0.4625975292752571 0.25295715099254618 -0.1043152732524365 0.028885710254497994 -0.022035160186499144 0.236744989720998 0.29239712979157439 0.26794823653964595 -0.04772345444807697 0.30951569958826558 -0.068161522096163885 -0.016910281874594025 -0.048832149978135155 -0.0021505512618583316 0.14745281220259485 0.027701080787126409 0.050474431608397596 0.012291678254557892 0.32991063262491083
leaf_weight=306.28136013448238 300.4276120364666 15.482476592063902 542.21837967634201 9.1669633761048299 603.75770247727633 250.69990620017052 375.14524539932609 0.98448476195335632 10.431565940380098 0.8412468396127224 1.0966588705778111 0.88186103105545033 0.83956008404493321 3.1992628462612629 1576.2572317495942 11.131387658417227 2.2796860188245835 2.4420222491025916 2.3616116791963568 7.6204280108213407 2.127034954726696 2.1811251044273376 100.97628559917212 20.971339918673038 108.25789700448513 8.7635892406105977 178.00364967435598 44.305822767317295 280.07450580596924 1.8122992068529118
leaf_count=1311 7604 164 22202 65 9662 3871 11297 25 265 21 28 22 21 81 10360 120 24 23 24 77 21 22 1083 244 1217 83 1843 472 2985 20
internal_value=0 0.0189757 -0.06094 0.0321226 0.00384099 -0.00453983 -0.0410909 -0.0299528 0.0324888 0.224295 0.0111994 0.111716 0.0514628 -0.0300482 0.0283821 0.0129195 0.0592922 0.106909 0.0795722 0.0482615 0.0122402 0.118306 0.011077 0.0153854 -0.0110292 0.017579 0.0333201 0.0106966 0.0192426 0.0614554
internal_weight=0 3534.95 1236.07 1891.71 1643.25 854.458 693.847 318.702 18.2746 1.82573 16.4489 6.01734 5.13548 4.03882 1585.42 788.791 30.1433 19.0119 16.5699 14.2083 11.9286 4.30816 758.648 634.907 123.74 613.936 186.767 427.169 326.193 46.1181
internal_count=75257 33691 41566 11736 21955 13533 19364 8067 463 46 417 152 130 102 10425 8422 311 191 168 144 120 43 8111 6730 1381 6486 1926 4560 3477 492
is_linear=0
shrinkage=0.1


Tree=13
num_leaves=31
num_cat=0
split_feature=7 7 7 7 23 6 20 7 20 5 19 6 19 0 5 1 0 21 23 24 25 26 26 24 6 26 15 0 15 26
split_gain=497.462 59.6592 57.7688 18.2574 8.77985 8.7714 7.62294 7.23076 6.64523 6.49977 14.4867 8.60368 17.4734 9.8258 16.1302 7.973 12.7211 13.17 12.5726 12.8003 12.044 9.95292 10.0014 13.6715 12.7574 12.8383 9.82021 9.54315 11.8409 13.0452
threshold=19.950000000000003 66.950000000000017 6.8500000000000005 3.5500000000000003 9.2111111111111104 31.000000000000004 41.583333333333336 1.5500000000000003 200.06666666666669 447.00000000000006 2.5833333333333335 -8.4999999999999982 8.5833333333333339 2021100218.0000002 473.00000000000006 1169.5000000000002 2022103640.5000002 3.1000000000000005 2.0500000000000003 757.28000000000009 4.1558704453441306 45.08045454545455 65.667948717948732 107.41428571428574 -1.0000000180025095e-35 55.004545454545458 1.0000000180025095e-35 2020103899.5000002 1.0000000180025095e-35 90.030256410256428
decision_type=2 2 2 2 10 2 8 2 8 2 8 2 8 2 2 2 2 10 8 8 10 10 10 10 2 10 10 2 10 10
left_child=2 5 3 4 6 -2 -1 8 -8 10 -5 12 13 -11 -15 16 17 20 19 -17 -13 -19 24 27 25 26 -23 -24 29 -29
right_child=1 -3 -4 9 -6 -7 7 -9 -10 11 -12 15 -14 14 -16 18 -18 21 -20 -21 -22 22 23 -25 -26 -27 -28 28 -30 -31
leaf_value=0.09219716794679908 -0.039259059240597097 -0.08473708550720592 -0.00081228366359751734 -0.066146916942222606 -0.098613157750331748 0.30859002029753413 0.02131805222875555 0.031769150633132175 0.076933231202994223 0.020411411524221781 0.01171404316538892 0.0073364603454937104 0.27490467109127475 0.29155717832893785 0.030613461478107524 0.046739113742978879 0.21243003121401474 -0.018782834225073479 0.0037434554528268417 0.24911755085832718 -0.09879561243828755 -0.025143274380853915 -0.039825404793468126 0.044978452915361587 0.034447968412515351 0.32216757008807839 0.21944537110335272 0.01620287803905263 -0.038333404555672412 0.17637933545481954
leaf_weight=23.178263992071152 655.70338477939367 499.43509758263826 1228.8902331180871 27.943559139966965 4.9074987173080435 0.72571781650185485 31.032464921474457 1032.5670769363642 69.827312752604485 36.192755609750748 164.98379877209663 123.33035898208618 3.5478491410613051 3.8892799243330938 6.0598712712526321 18.207672804594043 3.6506109088659278 32.467107996344566 389.71191646158695 3.7729246616363517 11.707447580993174 3.3031708747148532 36.639619186520576 270.3223836645484 12.637307919561861 4.0864910706877708 3.2631850838661194 12.720319107174875 13.981322817504404 8.4702689200639707
leaf_count=112 19069 22202 17905 245 25 18 127 5458 281 301 1428 1035 28 30 49 149 33 277 3276 28 103 29 320 2266 112 33 27 106 117 68
internal_value=0 -0.0586912 0.0167599 0.0259396 0.0348601 -0.0388745 0.0354264 0.0342654 0.0598216 0.0172392 0.000436678 0.0204874 0.0610493 0.044606 0.13262 0.018362 0.0263938 0.0251194 0.00789371 0.081477 -0.00186493 0.0342775 0.0389918 0.0346754 0.1024 0.18301 0.0964063 -0.00410872 0.0330984 0.0802284
internal_weight=0 1155.86 3581.29 2352.4 1161.51 656.429 1156.61 1133.43 100.86 1190.89 192.927 997.962 49.6898 46.1419 9.94915 948.272 536.58 532.929 411.693 21.9806 135.038 397.891 365.424 342.134 23.2902 10.6528 6.56636 71.8115 35.1719 21.1906
internal_count=75257 41289 33968 16063 6003 19087 5978 5866 408 10060 1673 8387 408 380 79 7979 4526 4493 3453 177 1138 3355 3078 2877 201 89 56 611 291 174
is_linear=0
shrinkage=0.1


Tree=14
num_leaves=31
num_cat=0
split_feature=7 7 7 7 7 5 14 6 19 0 0 23 20 11 0 0 23 8 1 2 26 22 22 22 7 7 0 24 26 1
split_gain=427.252 56.1169 43.4645 14.8297 9.73257 7.88917 14.1979 16.2216 22.6198 21.5622 7.11008 6.26138 9.01177 6.25376 7.93668 13.425 9.23791 11.4533 7.91253 6.536 17.7921 14.5319 9.00931 11.1846 6.16465 5.80139 5.66421 6.30978 16.1887 16.9475
threshold=24.250000000000004 6.8500000000000005 66.950000000000017 3.3500000000000001 14.350000000000003 407.00000000000006 1450.0000000000002 -4.4999999999999991 10.16666666666667 2021102300.0000002 2021104663.5000002 9.2678571428571441 41.583333333333336 15.500000000000002 2021102186.5000002 2020110104.5000002 3.4142857142857146 4.5000000000000009 1076.0000000000002 1193.5000000000002 145.00238095238097 125.01000000000001 80.010000000000019 10.990000000000002 133.15000000000001 1.5500000000000003 2018100772.5000002 225.69714285714289 228.36985294117648 1173.5000000000002
decision_type=2 2 2 2 2 2 10 2 8 2 2 10 8 2 2 2 10 2 2 2 8 10 10 10 2 2 2 8 8 2
left_child=1 3 5 11 13 6 -2 -8 -9 -10 26 12 -1 19 15 16 17 -15 -18 -3 21 22 23 -21 -4 -14 -6 -28 29 -29
right_child=2 4 24 -5 10 -7 7 8 9 -11 -12 -13 25 14 -16 -17 18 -19 -20 20 -22 -23 -24 -25 -26 -27 27 28 -30 -31
leaf_value=0.10145339189382435 -0.065258371944603238 0.00050039073290535346 -0.069375238474381887 0.015907317302806603 -0.048306689031618305 -0.042367132247600164 0.62237080619588026 -0.066553013464626262 0.86874438278443256 0.047413833152817671 -0.04856067376116073 -0.089705691949715838 0.053820972492378875 0.39309174156791044 -0.05146065879649684 0.25953901241982574 0.17491470878804316 0.035756377303521179 -0.0047792433624190859 -0.051578565453193316 -0.039958408616875156 0.42766043196388959 -0.10939393362285793 0.25545611028063347 -0.092840381615752171 0.028588947065239508 -0.015101193995282834 0.044043683921971159 0.0016437217752944989 0.32158357957300082
leaf_weight=18.494828954339027 5.2506329063326103 862.38209310173988 191.98857995867729 1317.8351809084415 34.98408667370677 496.00832631997764 0.68893796950578678 2.7130450010299687 0.61723244190216042 0.66294981352984905 54.385841354727745 4.2258678972721091 100.89418731629848 1.58138761669398 6.9337052777409545 3.2380269765853873 2.8158682249486473 2.0724920555949211 18.88367673382163 1.7191271781921402 8.5986711308360082 1.6714135929942129 1.5944094993174074 3.8289137966930866 268.59106412902474 940.90565162152052 241.91308617964387 6.6854733079671842 98.723477464169264 3.2793940380215645
leaf_count=84 170 11410 9156 10740 729 15556 22 86 20 21 1141 22 408 17 93 40 38 29 240 22 112 21 21 48 13046 4809 4957 137 1992 70
internal_value=0 0.0137565 -0.0608332 0.0229983 -0.0024891 -0.0406 0.0476418 0.174249 0.0969364 0.443414 -0.0147119 0.0317768 0.0322609 0.00338611 0.0445207 0.0677971 0.0433086 0.19041 0.018539 0.00172514 0.0623826 0.162225 0.10011 0.160318 -0.0830591 0.0310326 -0.00993765 -0.00610907 0.0139051 0.135381
internal_weight=0 3737.65 966.521 2382.36 1355.29 505.941 9.9328 4.68217 3.99323 1.28018 439.971 1064.52 1060.29 915.32 35.5252 28.5915 25.3534 3.65388 21.6995 879.795 17.4125 8.81386 7.14245 5.54804 460.58 1041.8 385.586 350.601 108.688 9.96487
internal_count=75257 37180 38077 16063 21117 15875 319 149 127 41 9026 5323 5301 12091 457 364 324 46 278 11634 224 112 91 70 22202 5217 7885 7156 2199 207
is_linear=0
shrinkage=0.1


Tree=15
num_leaves=31
num_cat=0
split_feature=7 7 7 7 4 21 1 1 19 22 25 7 5 0 5 23 15 0 20 1 8 6 7 17 9 2 0 6 19 2
split_gain=365.133 45.2377 42.4016 13.5186 6.57192 9.33701 7.44045 7.7073 9.58551 8.86377 8.52258 6.49388 6.79037 14.8105 15.2593 16.8361 13.6315 10.7151 7.11868 6.69337 6.46882 6.65806 6.38744 6.26992 12.285 10.5485 7.1595 9.57229 7.74355 16.205
threshold=24.250000000000004 7.4500000000000011 66.950000000000017 3.5500000000000003 5.5000000000000009 8.7750000000000021 1196.5000000000002 1066.5000000000002 11.41666666666667 64.100000000000009 7.0090909090909106 14.550000000000002 517.00000000000011 2021105476.5000002 519.00000000000011 5.4142857142857155 1.0000000180025095e-35 2021106236.0000002 74.350000000000009 732.50000000000011 7.5000000000000009 20.500000000000004 133.15000000000001 1.5000000000000002 52.500000000000007 1170.5000000000002 2021107023.5000002 3.5000000000000004 5.166666666666667 426.00000000000006
decision_type=2 2 2 2 2 10 2 2 10 10 10 2 2 2 2 8 10 2 10 2 2 2 2 2 2 2 2 2 8 2
left_child=1 3 -2 -1 5 23 7 -7 9 10 -9 12 18 14 15 16 -14 -15 -3 -16 21 -13 -4 24 25 -5 28 -28 -25 -30
right_child=2 11 22 4 -6 6 -8 8 -10 -11 -12 20 13 17 19 -17 -18 -19 -20 -21 -22 -23 -24 26 -26 -27 27 -29 29 -31
leaf_value=0.0275958176187375 -0.038098600280337951 0.0097824732076731945 -0.066972103712794703 0.042804119041811722 -0.016291460682420943 -0.030123379416141884 -0.020335077983992644 0.29406142471947738 -0.054108438847825839 0.0039600781216227298 0.12766680172383835 -0.022225363805880707 0.48319953172550173 0.44736247828356374 -0.10851366027791541 -0.008593153245880867 0.087198433913772466 0.073576214306862453 -0.01006213315256782 0.015615439464793726 0.0067551824483743656 0.20588633258646369 -0.091782444737598792 0.011030940437057869 0.001135869642447474 0.21262853014290131 0.019460333068799133 0.23048148777658184 0.20047396094687928 0.029057161891288204
leaf_weight=1189.695716753602 487.49600035138428 334.47273467108607 179.63643434643745 26.790913209319118 72.449110649526119 4.5605601295828846 8.0073379874229413 4.089905761182318 3.0328883454203597 4.0621453598141661 12.443399511277674 305.61927053332329 2.0254463441669937 1.4387285299599164 4.8367562033236018 2.9993491023778915 1.5228015035390852 1.6423992849886415 393.3505834788084 42.646828353404999 112.56917056813836 1.2849157154560078 245.69286647066474 489.97389131784439 498.47927115112543 4.2358529567718497 5.0735977068543416 3.7299870178103447 5.6538500636816016 224.49945892393589
leaf_count=6003 15875 4568 9156 224 622 38 63 32 23 33 95 6237 28 20 68 42 19 22 5518 594 2490 27 13046 4128 4244 35 41 31 47 1888
internal_value=0 0.012274 -0.05823 0.0198011 0.0130178 0.014658 0.0647323 0.0888965 0.111869 0.136311 0.168828 -0.00370491 0.00166294 0.034866 0.0227054 0.165818 0.313248 0.248115 -0.000942503 0.00297144 -0.0137494 -0.0212703 -0.0813039 0.0132177 0.00493598 0.065989 0.0192337 0.108868 0.018138 0.0332681
internal_weight=0 3761.19 912.825 2556.78 1367.08 1294.63 36.1962 28.1889 23.6283 20.5955 16.5333 1204.41 784.936 57.1123 54.0312 6.5476 3.54825 3.08113 727.823 47.4836 419.473 306.904 425.329 1258.44 529.506 31.0268 728.931 8.80358 720.127 230.153
internal_count=75257 37180 38077 17547 11544 10922 284 221 183 160 127 19633 10879 793 751 89 47 42 10086 662 8754 6264 22202 10638 4503 259 6135 72 6063 1935
is_linear=0
shrinkage=0.1


Tree=16
num_leaves=31
num_cat=0
split_feature=7 7 7 7 6 26 24 2 2 5 21 7 15 22 26 20 19 18 5 8 5 0 0 21 1 25 20 1 5 8
split_gain=313.059 43.9413 30.8694 13.0793 7.38203 7.44946 12.1484 10.2842 9.64861 6.89135 7.7686 6.64681 15.1412 6.5407 14.5803 16.569 10.8564 8.51665 7.45831 9.17267 6.58786 13.2519 12.1257 7.07599 6.36319 6.36146 8.91914 6.30501 11.7659 13.2443
threshold=29.350000000000005 8.6500000000000004 96.850000000000009 3.1500000000000008 -2.4999999999999996 26.020833333333339 27.010000000000002 1118.5000000000002 1122.0000000000002 513.00000000000011 8.2250000000000014 25.550000000000004 1.0000000180025095e-35 374.0266666666667 279.55238095238104 306.70000000000005 5.166666666666667 8.5000000000000018 469.00000000000006 6.5000000000000009 481.00000000000006 2021100736.0000002 2021103515.5000002 6.5500000000000007 1126.5000000000002 7.7161172161172171 40.083333333333336 1087.5000000000002 467.00000000000006 5.5000000000000009
decision_type=2 2 2 2 2 8 8 2 2 2 8 2 10 8 8 8 10 2 2 2 2 2 2 10 2 10 8 2 2 2
left_child=1 3 -2 25 -3 6 7 -6 -9 13 -11 -10 -13 -7 15 16 -15 18 19 -16 23 -22 -23 27 -24 26 -1 28 29 -19
right_child=2 4 -4 -5 5 9 -8 8 11 10 -12 12 -14 14 17 -17 -18 20 -20 -21 21 22 24 -25 -26 -27 -28 -29 -30 -31
leaf_value=0.11256961762298284 -0.043865748289971411 -0.021104171530806265 -0.085110212412346134 0.011691325876249763 -0.0096675330181576549 -0.014559284772600187 0.31711499767047524 0.35943879988959232 0.038215555092925568 0.040312779521546105 -0.042744893668297423 -0.0004043910769770843 0.42074216956558974 0.58407809845980918 0.038764012084984298 0.043223176457796102 0.18452752676126033 0.43433222869708071 -0.034694017724102681 -0.043773107663396586 0.033576637921730032 0.50448871924216043 0.28857582125772557 0.26082639188867968 -0.028635649950191546 -0.047994340381919715 0.025837648301295757 -0.029497248868035921 -0.107294369723994 0.018986827703416038
leaf_weight=12.006377920508383 460.97886295430362 277.06659325584769 299.2794835139066 1826.2681608125567 44.23934181034565 482.39867033436894 1.4183298051357258 1.0713105686008919 28.16505187377334 57.708278492093086 13.991448506712912 1.9390692822635167 1.5251006186008451 1.0137929245829558 43.639645464718342 8.0289657562971115 2.0657989084720612 1.4736075922846859 66.505171429365873 19.472969949245453 8.5456032343208772 1.3078696466982358 1.2606678828597071 1.089205965399741 1.2688710726797578 11.470508426427839 951.24911423027515 16.702925834804773 1.7422535046935079 1.6027448922395704
leaf_count=52 17819 5190 17089 15470 843 9051 30 19 487 1045 257 59 45 19 693 155 42 22 1207 434 153 23 20 21 21 57 4579 290 31 34
internal_value=0 0.0100648 -0.0601018 0.0166836 -0.00701824 -0.00218918 0.0271113 0.0217653 0.0642896 -0.00533507 0.0241049 0.0542926 0.185005 -0.00854246 0.00797535 0.11886 0.316058 0.000492437 -0.0113262 0.0132977 0.044269 0.102899 0.257275 0.0121595 0.129456 0.0260371 0.0269187 -0.000425529 0.100347 0.217942
internal_weight=0 3886.24 760.258 2800.99 1085.24 808.177 78.3582 76.9399 32.7005 729.818 71.6997 31.6292 3.46417 658.119 175.72 11.1086 3.07959 164.612 129.618 63.1126 34.9937 12.383 3.83741 22.6107 2.52954 974.726 963.255 21.5215 4.81861 3.07635
internal_count=75257 40349 34908 20158 20191 15001 1483 1453 610 13518 1302 591 104 12216 3165 216 61 2949 2334 1127 615 217 64 398 41 4688 4631 377 87 56
is_linear=0
shrinkage=0.1


Tree=17
num_leaves=31
num_cat=0
split_feature=7 7 7 7 7 0 0 5 10 24 7 26 10 22 7 0 8 26 8 5 13 4 0 7 6 2 24 0 9 25
split_gain=268.334 39.1633 26.7874 9.7975 8.67199 6.53501 7.98146 8.17536 6.61014 5.84232 9.24949 13.2571 10.5024 13.3141 30.6652 10.9187 10.3846 9.52615 10.5141 15.1261 15.2206 13.618 27.9979 24.7488 8.41453 17.0108 7.22094 11.1666 8.09772 28.9204
threshold=32.050000000000004 7.4500000000000011 108.55000000000001 2.1500000000000008 14.550000000000002 2018100772.5000002 2020109101.5000002 401.00000000000006 5.5000000000000009 248.15000000000001 26.850000000000005 306.01428571428579 2.5000000000000004 168.02000000000004 19.350000000000005 2020105035.0000002 5.5000000000000009 297.97440191387562 6.5000000000000009 493.00000000000006 1.0000000180025095e-35 4.5000000000000009 2018105403.5000002 19.350000000000005 20.500000000000004 1100.5000000000002 125.02500000000002 2020107011.5000002 52.500000000000007 5.202272727272728
decision_type=2 2 2 2 2 2 2 2 2 8 2 10 2 8 2 2 2 10 2 2 8 2 2 2 2 2 10 2 2 10
left_child=1 3 -2 -1 -3 -6 9 8 -8 24 11 12 15 14 -14 -11 -15 18 19 20 -18 -20 -23 -24 26 -26 -7 28 29 -28
right_child=2 4 -4 -5 5 6 7 -9 -10 10 -12 -13 13 16 -16 -17 17 -19 21 -21 -22 22 23 -25 25 -27 27 -29 -30 -31
leaf_value=0.029650377031599992 -0.044363649695668153 0.0015291177662813988 -0.085646108126772452 0.013059229894031932 -0.051309585068738339 0.00066016221874455323 0.011594562552147053 -0.032911609048505909 0.31925150622120579 -0.064485366836502467 -0.062231614756090237 -0.0066717509536572328 0.5897901309677025 -0.078042353779454066 0.0035327418134333648 0.28321873490418609 0.1241878561371326 0.37417346734082585 -0.021792063932576763 -0.042413681991124955 0.5459186663149439 -0.060177544878197237 0.088246724445437408 0.76351208840029983 0.47687445963151148 -0.10591634434062312 0.46743948528333057 0.30171929722462959 -0.043106666248646446 -0.10494189956462913
leaf_weight=425.4609504789114 423.96848319284618 785.43549815565348 249.78543042391539 2177.8788345903158 44.996735841035843 162.96639945544302 1.7178960554301732 159.6431204918772 1.1767124738544223 7.3366952426731569 12.126833967864512 41.605240924283862 1.7236594930291205 3.5655996873974827 1.8496358320116995 1.0299173761159179 1.7376141622662609 1.2523421794176091 9.5975468847900611 1.5768615696579216 1.6862614229321478 2.2060284353792659 1.0266253650188448 1.1515637245029209 1.0298703350126737 0.97499784268438805 1.3978116139769547 0.98195478320121665 92.294087253510952 2.395611084997654
leaf_count=1808 17937 10879 15562 15739 1114 3922 41 3824 27 160 379 915 31 68 46 23 35 29 217 32 32 47 18 28 23 20 33 21 2191 56
internal_value=0 0.00861301 -0.0596686 0.0157707 -0.00524653 -0.014766 -0.0115672 -0.0298917 0.136663 -0.00309406 0.0189688 0.0317 0.0763685 0.106337 0.286327 -0.0216835 0.0793146 0.107043 0.089419 0.213863 0.331891 0.0449103 0.190929 0.445246 -0.0106273 0.193454 -0.0122008 -0.0337925 -0.0372213 0.105971
internal_weight=0 3947.82 673.754 2603.34 1344.48 559.048 514.051 162.538 2.89461 351.513 89.4724 77.3456 35.7404 27.3737 3.5733 8.36661 23.8004 20.2348 18.9825 5.00074 3.42388 13.9818 4.38422 2.17819 262.041 2.00487 260.036 97.0695 96.0875 3.79342
internal_count=75257 41758 33499 17547 24211 13332 12218 3892 68 8326 2060 1681 766 583 77 183 506 438 409 99 67 310 93 46 6266 43 6223 2301 2280 89
is_linear=0
shrinkage=0.1


Tree=18
num_leaves=31
num_cat=0
split_feature=7 7 7 7 23 20 0 0 11 6 1 19 21 1 6 26 0 6 23 25 2 20 11 14 5 25 0 2 25 16
split_gain=230.51 36.5826 22.6675 13.5727 8.46622 6.9751 6.5299 7.07116 6.93535 6.6154 10.5065 16.0816 8.18144 7.99252 12.9276 7.40436 7.06293 8.01913 11.4309 20.8975 7.38483 7.41824 8.49869 14.2962 13.3986 24.045 7.54898 7.30083 8.7892 8.3624
threshold=36.250000000000007 12.450000000000001 133.15000000000001 4.0500000000000007 7.3875000000000011 700.01666666666677 2021104553.0000002 2018100772.5000002 16.500000000000004 -1.0000000180025095e-35 646.50000000000011 5.8333333333333348 8.7750000000000021 1103.5000000000002 -4.4999999999999991 330.83854166666669 2018101960.0000002 1.5000000000000002 5.5857142857142863 4.8591269841269851 1094.5000000000002 55.125000000000007 11.500000000000002 2050.0000000000005 443.00000000000006 4.9506097560975624 2021103701.5000002 1077.5000000000002 3.4037037037037039 1.0000000180025095e-35
decision_type=2 2 2 2 8 10 2 2 2 2 2 10 10 2 2 8 2 2 10 10 2 10 2 8 2 10 2 2 8 2
left_child=1 3 -2 -1 6 -6 7 -3 -8 12 11 -11 -9 14 -14 -15 17 -12 19 -19 21 -18 26 24 25 -24 -23 28 -26 -29
right_child=2 4 -4 -5 5 -7 8 9 -10 10 16 -13 13 15 -16 -17 20 18 -20 -21 -22 22 23 -25 27 -27 -28 29 -30 -31
leaf_value=0.018871199893120263 -0.04633551243985496 -0.054367918557818168 -0.088392545242162293 0.0059077973003171169 0.0018489023381603057 0.25179665022070558 -0.06012424297393533 -0.031388559098629719 0.21413807502770441 -0.034681436590215463 -0.10553951182858592 0.45862955376102693 0.51006103692182181 -0.049678666683889428 -0.0035413712783766761 0.29530884748872421 -0.065646742511703535 0.004134394267402532 -0.027897902166121709 0.65911997232939445 0.0085935998514317935 -0.033382252729746195 -0.10507908207371595 0.3801322403916127 0.20022792702991221 0.62881245666859598 0.21540451653866463 0.22616619997838547 -0.07524904556750317 -0.10515821231415821
leaf_weight=1494.866192266345 390.93693179264665 43.7113435883075 190.64835103973746 1756.8719312474132 241.56480332277715 1.1216662861406792 47.050918975844979 168.13224193453789 0.94043920934200187 1.4133224263787263 1.1509746182709921 1.2411452550441024 0.97582901082932949 3.6404781155288219 0.98451303876936325 0.75036017037928093 32.909076364710927 0.91126544214785132 1.3040835969150064 1.0465426985174415 143.21182724833488 54.30520093254745 0.83920680359006528 1.2325144484639157 1.3101480454206438 0.95387888513505459 1.2476666141301382 2.4123164173215623 9.9854584354907274 1.1133464463055132
leaf_count=7763 18489 1098 13046 17962 5728 28 1159 3896 22 33 25 28 24 96 24 20 771 22 34 24 3295 1241 20 25 31 22 28 52 226 25
internal_value=0 0.00723726 -0.0601221 0.0118672 -0.0124313 0.00300413 -0.0195968 -0.0160435 -0.0547498 -0.0121574 -0.00194179 0.195975 -0.0271799 0.0842331 0.252122 0.00927702 -0.0040107 0.121397 0.201473 0.354256 -0.00622858 -0.026196 -0.00850809 0.0515264 0.0271492 0.285334 -0.0277947 -0.00408609 -0.0432972 0.121539
internal_weight=0 4017.2 581.585 3251.74 765.461 242.686 522.774 474.783 47.9914 431.071 256.588 2.65447 174.483 6.35118 1.96034 4.39084 253.934 4.41287 3.26189 1.95781 249.521 106.309 73.3997 17.8469 16.6144 1.79309 55.5529 14.8213 11.2956 3.52566
internal_count=75257 43722 31535 25725 17997 5756 12241 11060 1181 9962 5902 61 4060 164 48 116 5841 105 80 46 5736 2441 1670 401 376 42 1269 334 257 77
is_linear=0
shrinkage=0.1


Tree=19
num_leaves=31
num_cat=0
split_feature=7 7 7 7 23 5 2 24 15 24 20 24 25 22 22 14 7 0 14 22 20 20 22 25 7 25 21 0 24 25
split_gain=197.786 30.0273 22.4464 10.8521 7.18739 6.03628 10.6437 11.3557 17.7532 8.93527 17.4044 11.0569 11.6934 10.7369 7.37261 10.5093 7.62926 7.34214 7.17395 7.20911 8.94808 6.92836 8.02966 7.35798 8.60988 7.58608 6.87208 6.24729 7.40819 10.752
threshold=36.250000000000007 12.450000000000001 133.15000000000001 4.0500000000000007 7.3875000000000011 493.00000000000006 1129.5000000000002 370.53222222222229 1.5000000000000002 188.33809523809529 296.70000000000005 180.05000000000004 5.0851449275362333 242.62000000000003 7.2766666666666682 1250.0000000000002 8.8500000000000032 2018100772.5000002 3055.0000000000005 280.06000000000006 330.16666666666669 191.5 174.04000000000002 5.1266025641025648 8.6500000000000004 6.3301282051282053 1.3666666666666669 2018102962.5000002 387.89000000000004 5.7795138888888902
decision_type=2 2 2 2 8 2 2 10 8 8 8 8 10 10 10 8 2 2 8 10 10 10 10 10 2 10 8 2 10 8
left_child=1 3 -2 -1 -3 26 9 18 17 10 11 14 -13 -12 15 -7 -17 -9 19 20 -8 22 -16 -23 25 -25 -5 28 -28 -30
right_child=2 4 -4 5 -6 6 7 8 -10 -11 13 12 -14 -15 21 16 -18 -19 -20 -21 -22 23 -24 24 -26 -27 27 -29 29 -31
leaf_value=0.016847699915672355 -0.043694445844641328 -0.018175530830401777 -0.087089219863709627 -0.06898455700208371 0.0026817287747735626 0.23214420741157304 0.024142891608387469 -0.082282616069699444 0.30439286677437977 -0.01210789574446023 0.30978669691549471 0.019890965356387118 0.35709787613746125 0.024183919660111363 0.0014703694640288039 -0.037259556199158661 0.14678975140798961 0.077202190273547425 0.18387100353051822 -0.032693862921747294 0.20512147032367545 -0.017230824423431584 -0.1012398567601492 0.26983557680357223 -0.058072254171983834 0.056541192761629805 -0.046655374368028982 0.0042095112385958913 -0.0040339856585537657 0.20427869213809907
leaf_weight=1506.3242435231805 374.01365172769874 514.48590872064233 174.95861078612506 13.609553284943102 243.3724870737642 3.414859585463998 106.8023854419589 3.1887333467602721 3.3223938494920722 165.76286281645298 3.3144422248005858 2.2203520238399497 1.9155675694346426 2.183433786034584 99.84740749001503 6.3075206428766251 3.5030911639332771 30.463552683591843 2.6620583385229102 23.103508099913597 2.8036855086684218 6.2048244178295127 8.2396079525351507 3.8913170099258405 1.9888055324554441 2.9177678301930428 51.571002520620823 1192.6775126159191 20.021462887525562 2.8277006968855849
leaf_count=7763 18489 12241 13046 143 5756 33 1069 33 31 1640 36 21 21 23 1035 58 43 287 26 223 27 62 85 35 28 27 561 12179 206 30
internal_value=0 0.00645794 -0.0575245 0.0106133 -0.0114776 0.00529191 0.0148049 0.0347471 0.0838625 0.00377882 0.0218223 0.0149901 0.17607 0.196362 0.0101028 0.0810514 0.0284592 0.0620902 0.021332 0.0180716 0.0287723 0.00247963 -0.00635936 0.0661601 0.124973 0.178437 0.00169637 0.00245553 -0.0256542 0.0217458
internal_weight=0 4028.95 548.972 3271.09 757.858 1764.77 484.058 172.346 36.9747 311.712 145.949 140.451 4.13592 5.49788 136.315 13.2255 9.81061 33.6523 135.372 132.71 109.606 123.09 108.087 15.0027 8.79789 6.80908 1280.71 1267.1 74.4202 22.8492
internal_count=75257 43722 31535 25725 17997 17962 4843 1696 351 3147 1507 1448 42 59 1406 134 101 320 1345 1319 1096 1272 1120 152 90 62 13119 12976 797 236
is_linear=0
shrinkage=0.1


Tree=20
num_leaves=31
num_cat=0
split_feature=7 7 7 7 6 23 5 10 1 18 11 5 14 2 0 14 9 18 20 8 13 22 14 5 7 0 26 20 0 19
split_gain=171.395 33.8956 13.1837 9.76692 5.75903 5.58048 5.4567 8.34977 8.7564 9.00086 7.04581 7.50066 8.54083 7.19914 6.93923 6.79362 10.1849 7.67766 16.9447 6.63526 6.24259 6.40427 6.14744 11.1191 15.7141 9.19009 7.41979 7.02761 6.21382 6.10084
threshold=48.850000000000001 14.050000000000002 133.15000000000001 3.5500000000000003 -14.499999999999998 9.2111111111111104 447.00000000000006 4.5000000000000009 1095.5000000000002 8.5000000000000018 2.5000000000000004 441.00000000000006 1250.0000000000002 1180.5000000000002 2021106153.5000002 1650.0000000000002 56.750000000000007 7.5000000000000009 119.41666666666667 1.5000000000000002 inf 123.72500000000001 1950.0000000000002 433.00000000000006 9.0500000000000025 2021103030.5000002 133.64426877470359 131.51666666666668 2020104149.5000002 4.8333333333333348
decision_type=2 2 2 2 2 10 2 2 2 2 2 2 8 2 2 10 2 2 10 2 8 10 10 2 2 2 10 8 2 8
left_child=1 3 -2 5 -3 -1 7 8 14 10 11 13 -13 19 -5 17 22 -12 -19 -10 -9 -22 23 25 26 29 -25 28 -24 -17
right_child=2 4 -4 6 -6 -7 -8 20 9 -11 15 12 -14 -15 -16 16 -18 18 -20 -21 21 -23 27 24 -26 -27 -28 -29 -30 -31
leaf_value=0.01663384063039296 -0.0487275029199312 -0.10432508207971546 -0.085709375263365306 -0.043923147836541832 -0.013518555722575718 -0.092855073868968643 0.0073375150089037139 -0.023331381864032788 0.12010836387151323 -0.024242631056865614 0.013383908785243854 0.2510705647064046 0.019474183557778312 0.11423781010094668 0.088091013679137742 0.23938240512589359 -0.060313770235843028 0.3258937174752129 -0.06347182452630605 -0.070080148511653478 0.18321815789493423 -0.034315237054295594 0.015488042789721114 0.039466545849275336 0.50295768150869846 -0.11446295525172004 0.27421351821467943 -0.030506176477908771 0.2368114959828915 0.017651129015316867
leaf_weight=1230.4054872393608 240.82998989429325 7.0505215469747773 160.73055610992014 37.313782811164856 742.16914629563689 4.672805741429328 1806.3447915501893 188.49284875020385 2.0364852771163084 30.991537056863308 35.080653328448534 2.1739153042435619 5.9521613530814657 3.0168338268995276 4.4573585055768481 2.8039297275245243 3.719498384743928 2.5002459511160842 2.0212298631668091 18.483984809368849 2.9998389035463324 2.4658315926790237 2.2887552715837929 2.5873144790530205 1.7984493263065813 1.9503404423594473 2.8074911534786224 4.761184412986041 2.8458437100052834 2.2260508388280869
leaf_count=5978 13891 196 13046 396 20336 25 17982 1981 13 317 358 21 61 29 47 26 39 26 22 197 29 24 23 25 25 19 24 50 30 21
internal_value=0 0.00488468 -0.06353 0.00911933 -0.0143731 0.0162196 0.00508208 -0.00605615 0.00999666 0.022791 0.0375067 -0.00140242 0.0814316 -0.0300002 -0.029836 0.0557879 0.093691 0.0291913 0.151836 -0.0512055 -0.0202764 0.0850782 0.11749 0.159718 0.246969 0.0698051 0.16163 0.0570072 0.138156 0.141254
internal_weight=0 4156.42 401.561 3407.2 749.22 1235.08 2172.12 365.776 171.817 130.046 99.0544 31.6634 8.12608 23.5373 41.7711 67.391 27.7889 39.6021 4.52148 20.5205 193.959 5.46567 24.0694 14.1736 7.19325 6.98032 5.39481 9.89578 5.1346 5.02998
internal_count=75257 48320 26937 27788 20532 6003 21785 3803 1769 1326 1009 321 82 239 443 688 282 406 48 210 2034 53 243 140 74 66 49 103 53 47
is_linear=0
shrinkage=0.1


Tree=21
num_leaves=31
num_cat=0
split_feature=7 7 7 7 20 20 7 5 5 23 21 13 5 15 5 0 6 2 20 12 14 26 26 1 2 22 9 7 17 1
split_gain=148.545 29.3204 11.4654 8.71632 6.06609 8.8026 9.41669 15.5262 15.2465 8.31389 7.08356 10.9837 6.27827 6.63001 7.12033 6.02422 6.1643 5.45918 5.42177 5.19284 14.3753 5.19156 7.42118 9.72211 9.82873 9.83792 9.14771 9.61787 7.70089 6.47016
threshold=51.650000000000013 14.850000000000003 133.15000000000001 2.4500000000000006 643.26666666666677 715.28333333333342 45.550000000000004 503.00000000000006 515.00000000000011 2.683333333333334 6.1000000000000005 1.0000000180025095e-35 399.00000000000006 2.5000000000000004 491.00000000000006 2018100772.5000002 31.000000000000004 1027.5000000000002 526.35000000000014 1.0000000180025095e-35 1650.0000000000002 275.84523809523813 440.03636363636366 1138.5000000000002 1054.5000000000002 365.01000000000005 54.500000000000007 2.1500000000000008 3.5000000000000004 1138.5000000000002
decision_type=2 2 2 2 8 8 2 2 2 10 10 10 2 8 2 2 2 2 10 2 10 10 10 2 2 10 2 2 2 2
left_child=1 3 -2 21 9 -6 10 17 -9 -3 12 -12 -7 -14 -15 -11 18 -8 -17 20 -19 -1 23 -23 25 -25 -24 28 29 -28
right_child=2 4 -4 -5 5 6 7 8 -10 15 11 -13 13 14 -16 16 -18 19 -20 -21 -22 22 26 24 -26 -27 27 -29 -30 -31
leaf_value=0.01192929726668145 -0.047893995555727299 -0.10421439152878008 -0.084248394996344358 0.0057068936800185911 0.12457156545610948 0.20633544719421254 0.29957661962587062 0.85179858743376402 0.088564033331665362 -0.048797423713721554 0.021185112690349443 0.4236964714264117 -0.021130145131414719 0.023683874936043833 0.38901713941798532 -0.012433124806479567 0.26231498441573403 -0.10262396709274729 -0.085065364010256883 -0.069361061314855102 0.51593107234072388 0.011631172767291427 0.098368788669605925 -0.062332564899801782 0.085028159506411655 0.10787645223142964 0.16947233577380097 -0.062054885549356398 -0.0048537735639519923 0.033852730420550585
leaf_weight=380.40806704759598 209.9613776113838 11.031589074060319 147.83113198541105 2879.1069870628417 6.1069251410663119 1.284600993618368 0.74590561725199123 0.52387467958033063 0.52304575219750404 52.901229983195662 2.388318138197064 0.94666103646159161 82.683991484344006 1.5625417865812772 0.81005308590829361 527.37461199425161 0.80947665870189567 0.89670004881918408 10.481642818078397 2.9861159455031157 0.64667258225381374 49.300563424825668 10.125910893082617 9.9894377738237363 64.837782144546509 5.1446076780557624 5.1078981608152416 20.205392241477966 41.501529037952423 11.300196677446364
leaf_count=1626 13080 309 13046 26248 159 32 30 21 21 1680 66 25 2254 45 20 15171 15 36 302 116 26 210 43 43 275 22 21 92 176 47
internal_value=0 0.00421888 -0.0629147 0.00798858 -0.0143809 0.00815842 0.000752817 0.118708 0.470483 -0.0182 -0.00756322 0.135441 -0.0130869 -0.0164008 0.148416 -0.016596 -0.0134336 0.0488971 -0.0138486 0.00761574 0.15655 0.0189753 0.0312981 0.0465589 0.0680909 -0.00447238 0.00894122 -0.00265112 0.0180756 0.0760716
internal_weight=0 4181.73 357.793 3477.03 704.704 102.105 95.9985 6.32231 1.04692 602.599 89.6762 3.33498 86.3412 85.0566 2.37259 591.567 538.666 5.27539 537.856 4.52949 1.54337 597.921 217.513 129.272 79.9718 15.134 88.2409 78.115 57.9096 16.4081
internal_count=75257 49131 26126 28803 20328 2851 2692 250 42 17477 2442 91 2351 2319 65 17168 15488 208 15473 178 62 2555 929 550 340 65 379 336 244 68
is_linear=0
shrinkage=0.1


Tree=22
num_leaves=31
num_cat=0
split_feature=7 7 7 7 5 1 5 11 20 0 22 24 22 19 8 5 14 25 22 0 0 26 22 0 10 10 6 23 21 21
split_gain=128.312 25.0597 11.3648 9.2752 5.60689 10.7327 6.78581 5.1378 6.15153 10.2981 6.07516 13.9282 6.18387 6.30757 8.14891 8.87603 6.81682 6.59384 11.0294 9.99974 5.93444 5.82058 5.99468 5.12168 6.30752 9.87305 4.64798 4.43947 5.00831 6.11846
threshold=51.650000000000013 18.750000000000004 133.15000000000001 4.8500000000000005 549.00000000000011 1110.5000000000002 541.00000000000011 15.500000000000002 1450.0166666666669 2020103955.5000002 601.45000000000016 535.83000000000004 407.46000000000009 3.416666666666667 3.5000000000000004 485.00000000000006 1550.0000000000002 5.202272727272728 92.970000000000013 2020104474.5000002 2020103429.0000002 32.51250000000001 16.020000000000003 2022105725.5000002 3.5000000000000004 5.5000000000000009 18.500000000000004 12.366666666666669 10.633333333333335 9.5500000000000025
decision_type=2 2 2 2 2 2 2 2 8 2 8 8 8 10 2 2 10 10 8 2 2 10 10 2 2 2 2 10 10 10
left_child=1 3 -2 4 6 -6 26 27 10 -10 11 12 13 -9 15 16 -15 18 19 -16 -17 22 -19 -3 -25 -26 -1 28 29 -5
right_child=2 23 -4 7 5 -7 -8 8 9 -11 -12 -13 -14 14 17 20 -18 21 -20 -21 -22 -23 -24 24 25 -27 -28 -29 -30 -31
leaf_value=0.011820812741017378 -0.045262484734157421 -0.018023262344059651 -0.082702295889993338 -0.00021799921299927701 0.18624234209279222 0.01195872486662344 -0.063149363534500014 -0.067684013354236877 0.27751793072848091 0.025064496215739238 -0.09084123492715418 0.28740837450869117 0.14761406105704572 -0.055184487511190553 0.39036829087632485 0.067824462949093625 0.11623229529149731 -0.040215011304771814 -0.010187678254493047 0.028343640754918922 0.26999935841106887 -0.073989059479460315 0.18383811509336107 -0.10360148056417043 0.57272595673905247 0.028047151311967139 -0.057151432059060807 0.096227067077617273 -0.050163173695104618 0.041236122464169717
leaf_weight=1862.062903098762 200.45800937153399 492.55297608487308 136.13886236958206 1660.3521432653069 5.333957463502883 10.467434965074061 12.270586155354975 8.8510646857321245 2.5425517261028281 4.4331173039972782 4.7331656105816355 1.9834604673087586 3.4458413422107688 5.0571060851216298 1.598184071481229 2.6104838401079169 4.2862237840890884 2.8883560970425632 6.9837649278342733 1.4599767401814459 3.2711818218231201 13.997206274420021 2.035878662019968 0.69887593761086408 0.59172581695020177 0.76049870997667313 9.822003059089182 4.8169122561812392 19.605128511786461 36.384899955242872
leaf_count=10261 13080 16217 13046 20774 27 55 67 97 26 56 57 21 39 48 22 21 38 42 93 22 25 200 27 22 20 25 59 60 254 456
internal_value=0 0.00377093 -0.0604053 0.00660319 0.0114705 0.0707903 0.010973 0.00144074 0.027963 0.117081 0.018127 0.0269482 0.0178022 0.00936868 0.0248026 0.0840326 0.0234524 -0.00633249 0.0591633 0.217536 0.180267 -0.0410922 0.0524177 -0.0173666 0.140326 0.266396 0.0114589 0.000359338 9.02858e-05 0.000670945
internal_weight=0 4185.9 336.597 3691.29 1899.96 15.8014 1884.16 1791.34 70.1776 6.97567 63.2019 58.4687 56.4853 53.0394 44.1884 15.225 9.34333 28.9634 10.0419 3.05816 5.88167 18.9214 4.92423 494.604 2.0511 1.35222 1871.88 1721.16 1716.34 1696.74
internal_count=75257 49131 26126 32847 10469 82 10387 22378 834 82 752 695 674 635 538 132 86 406 137 44 46 269 69 16284 67 45 10320 21544 21484 21230
is_linear=0
shrinkage=0.1


Tree=23
num_leaves=31
num_cat=0
split_feature=7 7 7 7 22 9 2 0 1 21 7 1 22 18 20 16 10 17 7 20 0 23 22 7 6 19 7 19 23 25
split_gain=110.6 20.4963 11.1922 7.55386 7.03114 6.39033 7.48019 10.3058 8.78658 7.56877 13.2699 11.2824 13.3349 11.6589 9.44439 9.29572 7.63633 7.40342 6.70748 7.21046 6.96174 6.89618 6.65184 5.99999 5.81515 5.43192 8.13959 15.8205 18.9012 9.39415
threshold=51.650000000000013 18.750000000000004 133.15000000000001 1.7500000000000002 309.26500000000004 52.500000000000007 1193.5000000000002 2021104663.5000002 1163.5000000000002 5.6333333333333337 14.350000000000003 1207.5000000000002 199.90000000000003 2.5000000000000004 93.166666666666671 1.0000000180025095e-35 2.5000000000000004 2.5000000000000004 7.6500000000000012 173.29166666666671 2020105561.5000002 4.9500000000000011 93.366666666666674 5.8500000000000005 7.5000000000000009 7.8333333333333348 18.150000000000002 9.1666666666666696 7.7071428571428582 4.779132791327914
decision_type=2 2 2 2 8 2 2 2 2 8 2 2 10 2 10 2 2 2 2 10 2 10 10 2 2 8 2 10 10 8
left_child=1 3 -2 4 24 6 7 8 -5 10 11 12 13 15 -12 -10 -15 22 19 20 21 -18 -11 -7 -1 -25 29 28 -28 -27
right_child=2 -3 -4 5 -6 23 -8 -9 9 17 14 -13 -14 16 -16 -17 18 -19 -20 -21 -22 -23 -24 25 -26 26 27 -29 -30 -31
leaf_value=0.0045337398329990146 -0.042663991435039135 -0.015920201133058972 -0.081067780448340399 -0.11843850750934076 0.049761216076292247 0.0074551273893351455 0.18475877716617928 -0.039457588795354451 0.084060266259185445 0.020588002460739406 0.070603708373417201 0.17646465864196634 -0.049358666575958852 -0.062435241715594614 0.45777737304635224 0.27795357096702716 0.1083955783789933 0.18632065103615231 -0.045830921996249968 -0.021077427050835283 0.033865383829427963 0.29134122367990672 -0.070921903929962116 -0.0047698994638778009 0.086528643776176251 0.092666489302130936 0.088320783441728459 -0.076059529683850602 0.47814185132943576 0.0038403418965526799
leaf_weight=116.44535249471664 191.85971025004983 486.75195564515889 125.54297539964318 3.6789893321692935 72.281878307461739 1985.8506338000298 2.8830002918839446 22.88448117300868 6.633071340620516 42.070517648011446 1.1351058185100549 6.5610959827899924 13.289912495762108 6.4233859069645431 1.4159360714256761 3.9421396888792515 5.4167957454919868 2.3088481388986102 4.7323317974805823 4.6236179694533339 5.4358403235673896 3.3253851681947708 9.7922697104513627 1030.0402045473456 9.3434506654739362 12.366180054843424 4.6252292804419977 3.3328597731888294 1.7013485841453073 320.14016551524401
leaf_count=473 13080 16284 13046 38 299 12251 25 210 51 458 23 48 109 51 24 27 35 26 65 32 36 22 106 13792 38 173 88 63 26 4258
internal_value=0 0.00337121 -0.0578539 0.00590725 0.0249065 0.00483346 0.0252738 0.0220735 0.0337314 0.038512 0.0620985 0.0526603 0.0375682 0.06607 0.285501 0.156338 0.0342046 0.01111 0.0605815 0.0873653 0.12273 0.177985 0.00330992 0.0039414 0.0106242 -0.00114364 0.00977267 0.100264 0.193152 0.00714386
internal_weight=0 4189.43 317.403 3702.68 198.071 3504.61 146.553 143.67 120.785 117.106 62.9346 60.3836 53.8225 40.5326 2.55104 10.5752 29.9574 54.1716 23.534 18.8016 14.178 8.74218 51.8628 3358.06 125.789 1372.21 342.166 9.65944 6.32658 332.506
internal_count=75257 49131 26126 32847 810 32037 1386 1361 1151 1113 523 476 428 319 47 78 241 590 190 125 93 57 564 30651 511 18400 4608 177 114 4431
is_linear=0
shrinkage=0.1


Tree=24
num_leaves=31
num_cat=0
split_feature=7 7 7 7 14 2 7 18 5 26 0 2 12 11 2 22 22 20 24 22 23 5 0 5 2 21 14 13 1 2
split_gain=95.1079 17.1577 10.9491 5.82781 5.8014 6.16039 6.30129 9.93226 6.68569 10.2718 16.6827 33.2987 29.7907 11.8979 10.4838 10.14 19.7954 8.73965 23.3507 9.91035 21.1583 24.7141 8.37996 21.9884 7.06258 6.18199 11.4137 10.1554 12.7088 6.12486
threshold=51.650000000000013 12.950000000000001 133.15000000000001 1.5500000000000003 1850.0000000000002 1168.5000000000002 24.250000000000004 4.5000000000000009 471.00000000000006 88.820855614973269 2019110113.5000002 1084.5000000000002 1.0000000180025095e-35 11.500000000000002 1144.5000000000002 108.63333333333335 125.01000000000001 55.125000000000007 57.990000000000002 15.610000000000001 7.2928571428571436 443.00000000000006 2018106560.5000002 481.00000000000006 1073.5000000000002 8.7750000000000021 1175.0000000000002 1.0000000180025095e-35 1183.5000000000002 1158.5000000000002
decision_type=2 2 2 2 10 2 2 2 2 10 2 2 2 2 2 8 8 10 8 10 8 2 2 2 2 10 10 10 2 2
left_child=1 3 -2 -1 5 6 -3 8 9 10 11 -8 -13 -11 24 -10 -17 19 -19 20 21 -12 23 -18 -15 26 -22 -28 -29 -6
right_child=2 4 -4 -5 29 -7 7 -9 15 13 17 12 -14 14 -16 16 22 18 -20 -21 25 -23 -24 -25 -26 -27 27 28 -30 -31
leaf_value=0.029959708642834627 -0.040110553344248061 0.007054028351097712 -0.079342458449767977 0.0054388413250972059 -0.036334565085147978 -0.02823749700943853 0.010492398542773337 -0.027796061870302105 -0.073908462625282279 -0.080395705245247404 0.96348888818222356 1.1783690402673324 0.26208447513025018 0.28235959649202519 0.50832445051156683 0.54759386199806803 0.67227710752238978 0.58690920964673665 -0.10286412233250553 -0.083568978501470409 0.47893088786299665 0.05404783403909557 -0.050493369070156904 -0.00077136203176533639 -0.10303332540075419 -0.073398639259759091 -0.048250848140494858 0.45857435945315184 -0.1027662510882752 0.01032000325342412
leaf_weight=99.883187249302864 184.08252600766718 335.55275094695389 115.94249214045703 3272.2133393511176 133.23830515891314 102.06921323947608 1.7651663199067145 157.1194673217833 13.828576223924758 8.9248754233121854 0.56260407902300424 0.62444389425218083 0.8218106497079134 0.77897465787827913 0.65404627472162236 0.76866673864423951 0.64511616155505214 1.0145766083151089 0.95062661916017543 5.1947000231593838 0.68723936937749375 0.63728711940348148 5.7207128815352917 1.9606316946446893 1.2205790635198353 3.3923381473869085 3.6496921926736832 1.0685334354639051 0.64785637892782677 35.672750856727362
leaf_count=409 13080 7227 13046 25972 3667 2811 67 5953 527 342 21 24 31 30 23 29 25 37 36 197 25 24 214 76 45 128 132 40 25 994
internal_value=0 0.00301165 -0.0552714 0.00616516 -0.0099697 -0.00568062 -0.00148069 -0.0149488 0.0214089 0.0505105 0.0921769 0.301963 0.657705 -0.025121 0.160785 -0.0199708 0.062038 0.0543396 0.253246 0.0296625 0.084916 0.480466 0.0172134 0.165858 0.0471058 0.0346689 0.095231 0.0460901 0.246695 -0.0264815
internal_weight=0 4191.27 300.025 3372.1 819.172 650.26 548.191 212.639 55.5191 32.5954 21.0169 3.21142 1.44625 11.5785 2.6536 22.9237 9.09513 17.8055 1.9652 15.8403 10.6456 1.19989 8.32646 2.60575 1.99955 9.44566 6.05332 5.36608 1.71639 168.911
internal_count=75257 49131 26126 26381 22750 18089 15278 8051 2098 1227 787 122 55 440 98 871 344 665 73 592 395 45 315 101 75 350 222 197 65 4661
is_linear=0
shrinkage=0.1


Tree=25
num_leaves=31
num_cat=0
split_feature=7 7 7 7 23 0 22 5 1 17 21 20 22 20 14 15 2 11 23 6 0 11 19 19 1 6 2 2 2 1
split_gain=82.4537 18.4174 7.1126 5.95997 5.60528 5.66903 5.24258 5.20798 5.37124 8.21698 5.31399 10.4121 13.7261 5.13968 5.01284 8.46323 28.6668 6.57764 15.9724 6.12982 4.97186 10.9228 4.67966 5.15988 7.87015 5.00759 6.82289 25.7671 6.70588 5.48665
threshold=64.550000000000011 19.650000000000002 189.05000000000004 4.1500000000000012 4.0500000000000007 2018102160.5000002 743.76666666666677 545.00000000000011 663.00000000000011 3.5000000000000004 4.1000000000000005 596.55000000000007 743.76666666666677 686.96666666666681 1250.0000000000002 1.5000000000000002 1147.5000000000002 2.5000000000000004 6.3166666666666673 13.500000000000002 2022105725.5000002 5.5000000000000009 13.583333333333334 13.16666666666667 1178.5000000000002 17.500000000000004 1135.5000000000002 1153.5000000000002 1006.5000000000001 1177.5000000000002
decision_type=2 2 2 2 8 2 10 2 2 2 10 10 8 8 8 10 2 2 8 2 2 2 10 10 2 2 2 2 2 2
left_child=1 3 20 -1 7 14 -4 8 9 -3 -10 -12 13 -13 15 17 -17 18 -6 -19 -2 -22 23 25 -25 29 28 -28 -27 -7
right_child=2 4 6 -5 5 22 -8 -9 10 -11 11 12 -14 -15 -16 16 -18 19 -20 -21 21 -23 -24 24 -26 26 27 -29 -30 -31
leaf_value=0.0092882321960052264 -0.048690209798693256 -0.10280849429616318 -0.08697936180340414 0.0012341281312480828 0.57916403868921973 -0.018136820224213514 0.4521012341052485 0.25423175702328538 -0.076746427201283302 0.43418169212035096 -0.050743915568004921 0.68267506638035991 -0.10311948006097388 0.24600121854847648 -0.061794744456007945 -0.033658352352361219 0.81961575973359957 -0.065291863317284968 -0.10266211326716689 0.2904286781337963 0.79156773077479536 -0.10119211079446236 -0.10273768173410021 0.3829033922497449 -0.10287260266104886 0.27290692322140725 0.69949685579818022 -0.030474429359078958 -0.048928297791590331 0.0069139959470111327
leaf_weight=1597.102293074131 152.46746221929789 0.58224853686988243 72.168328219093382 2163.237996224314 0.58640217967331287 249.72083786502481 0.18085240013897319 0.55480959825217624 34.184935431927443 0.55809124372899532 5.7092657387256613 0.50908329710364286 0.75958778522908699 0.57282810844481002 39.013279817998409 1.4454478304833163 0.54113701544702042 10.649182351306077 0.82970117963850509 0.50751539692282754 0.22401399910449882 0.35299938730895519 5.195547852665185 0.82122931256890186 0.56157415360212326 0.7872062586247911 0.74598178267478976 1.3746344875544307 3.6460542343556881 134.53193434886634
leaf_count=8124 13865 23 8779 25567 22 9482 22 16 1275 20 209 19 27 21 1595 58 19 428 35 19 19 31 213 29 22 19 20 50 124 5105
internal_value=0 0.00226928 -0.0597952 0.00465489 -0.0158757 -0.0125713 -0.0856318 -0.0501867 -0.0541259 0.159999 -0.0599764 0.0159475 0.222713 0.451474 -0.0431079 0.00696522 0.19877 -0.0233412 0.179679 -0.0491102 -0.0475814 0.245404 -0.00845459 -0.00720557 0.185624 -0.00788786 0.0787869 0.226312 0.00821942 -0.0093662
internal_weight=0 4254.73 225.394 3760.34 494.389 450.958 72.3492 43.4308 42.876 1.14034 41.7357 7.55076 1.8415 1.08191 53.5727 14.5594 1.98658 12.5728 1.4161 11.1567 153.044 0.577013 397.385 392.189 1.3828 390.807 6.55388 2.12062 4.43326 384.253
internal_count=75257 52541 22716 33691 18850 17240 8801 1610 1594 43 1551 276 67 40 2176 581 77 504 57 447 13915 50 15064 14851 51 14800 213 70 143 14587
is_linear=0
shrinkage=0.1


Tree=26
num_leaves=31
num_cat=0
split_feature=7 7 7 2 6 9 16 14 0 1 8 19 23 15 26 25 17 1 7 20 26 26 26 22 5 5 2 26 0 8
split_gain=71.23 15.4158 7.03254 5.61997 8.24469 7.14937 11.8784 8.39767 8.31573 11.362 12.6522 8.68002 6.4857 10.0742 7.12386 5.98665 8.70104 11.044 17.4454 13.3189 17.5105 14.3417 10.9091 7.32177 6.81378 11.5395 10.8788 13.1601 15.2064 7.01075
threshold=64.550000000000011 19.650000000000002 189.05000000000004 1057.0000000000002 7.5000000000000009 53.500000000000007 1.0000000180025095e-35 1075.0000000000002 2020102555.5000002 1203.5000000000002 4.5000000000000009 4.8333333333333348 1.5357142857142858 1.0000000180025095e-35 843.22500000000002 5.1062030075187979 3.5000000000000004 1117.5000000000002 17.850000000000005 263.36666666666673 249.49074074074079 140.01136363636365 346.22500000000008 61.250000000000007 507.00000000000006 521.00000000000011 1017.5000000000001 155.37017543859653 2019105754.5000002 4.5000000000000009
decision_type=2 2 2 2 2 2 2 10 2 2 2 8 8 10 10 10 2 2 2 10 8 8 10 8 2 2 2 8 2 2
left_child=1 3 -2 4 5 6 7 -1 11 10 -10 -8 13 -7 15 23 24 19 -19 21 -21 -18 -22 -14 29 26 -26 28 -28 -17
right_child=2 -3 -4 -5 -6 12 8 -9 9 -11 -12 -13 14 -15 -16 16 17 18 -20 20 22 -23 -24 -25 25 -27 27 -29 -30 -31
leaf_value=0.15180311743372132 -0.045015305309152688 -0.014711725909479773 -0.08423450630823337 0.0061386850152291448 -0.034189303666333506 0.010747906372657795 0.12916113614479005 -0.017039300328810479 0.13208402742961622 0.020988874298468796 0.39704342351536442 -0.090848693895905663 -0.10322032502154198 0.23174362885715075 -0.096360935991710028 0.0052509167662184711 0.23030341236528595 -0.017869603569160408 0.28607069481401082 0.35114091233617684 -0.034370126869506093 -0.03545163956436375 0.21691712049376172 -0.0089351598419770695 0.017427411626207891 -0.029312958278359936 0.054686954749348628 -0.032269175959675885 0.37645682199933239 -0.039762350093515537
leaf_weight=3.2289091348648062 146.17993952706456 487.86177711002529 66.529431936796755 2997.1771759986877 78.31305218860507 6.7979779317975026 3.0897036753594902 33.590651720762253 7.449976444244383 5.9392598047852507 2.377316452562809 4.2735689841210842 8.4269456006586534 2.9612639844417572 8.3028996214270574 112.71860265359282 2.6207516826689252 25.951281305402521 2.0366443023085585 3.8061720877885792 3.6617311984300622 9.018787793815136 3.270778700709343 363.958392187953 8.3973936475813442 12.386917557567356 2.3857586309313747 2.1916615068912515 3.8209509886801243 49.926101893186569
leaf_count=27 13915 18850 8801 26464 768 52 26 308 48 48 38 50 100 24 81 940 35 310 39 41 43 112 35 3005 80 114 27 20 38 818
internal_value=0 0.00201448 -0.057282 0.00418006 -0.00343482 4.26739e-05 0.0330478 -0.00223258 0.0892095 0.130186 0.19618 0.00146966 -0.00308491 0.077805 -0.00435229 -0.00310926 0.00912895 0.0461194 0.00424773 0.0984874 0.178806 0.0243856 0.0841879 -0.0110688 -0.000583262 0.0439102 0.0979125 0.178388 0.252774 -0.00856654
internal_weight=0 4255.94 212.709 3768.08 770.903 692.59 59.9494 36.8196 23.1298 15.7666 9.82729 7.36327 632.641 9.75924 622.882 614.579 242.194 50.3661 27.9879 22.3782 10.7387 11.6395 6.93251 372.385 191.827 29.1827 16.7958 8.39837 6.20671 162.645
internal_count=75257 52541 22716 33691 7227 6459 545 335 210 134 86 76 5914 76 5838 5757 2652 615 349 266 119 147 78 3105 2037 279 165 85 65 1758
is_linear=0
shrinkage=0.1


Tree=27
num_leaves=31
num_cat=0
split_feature=7 7 0 7 6 18 3 6 15 19 5 14 20 15 25 7 5 1 1 11 24 7 2 5 5 20 20 22 24 5
split_gain=61.2972 13.4224 6.97632 6.9171 6.85312 6.72137 6.62307 5.96042 12.7817 5.9396 16.7483 5.75556 5.7364 5.70663 6.94175 9.33348 8.82593 7.95499 11.0663 6.7047 6.14708 11.0084 6.00167 5.57427 6.08574 9.29769 9.78163 10.8266 6.22067 5.51543
threshold=64.550000000000011 8.6500000000000004 2018100772.5000002 189.05000000000004 -2.4999999999999996 4.5000000000000009 1.5000000000000002 -7.4999999999999991 1.5000000000000002 9.5833333333333339 495.00000000000006 501.00000000000006 912.95000000000016 1.0000000180025095e-35 5.4821200510855688 10.950000000000001 407.00000000000006 1170.5000000000002 1195.5000000000002 9.5000000000000018 261.87777777777785 16.650000000000002 1194.5000000000002 409.00000000000006 417.00000000000006 90.166666666666671 243.40000000000001 144.02000000000004 46.405000000000008 537.00000000000011
decision_type=2 2 2 2 2 2 2 2 10 10 2 10 10 10 8 2 2 2 2 2 8 2 2 2 2 10 8 10 10 2
left_child=1 23 7 -2 5 6 11 8 9 -3 -11 -4 -5 -7 -15 17 -17 19 -19 -16 22 -22 -18 -1 25 28 27 -27 -25 -6
right_child=3 2 4 12 29 13 -8 -9 -10 10 -12 -13 -14 14 15 16 20 18 -20 -21 21 -23 -24 24 -26 26 -28 -29 -30 -31
leaf_value=-0.048699016704739036 -0.042440316346046343 -0.035370491559860419 0.23393910193506656 -0.084329646049223314 -0.0013319316617668106 -0.039751322692955886 -0.10626357263869397 -0.041579949268192425 0.31555407285125625 -0.10419535280604129 0.60801601206484379 0.010954625899598539 0.50716412605722139 -0.040518783690504601 -0.05279873521629963 0.28799666034364008 -0.025799588323888234 0.34863636534920361 0.012143186992536857 0.19015939209692362 0.34475688650952291 -0.017393196907023425 0.23984966191078683 0.05239491151604541 0.005495919645209321 0.065280552675227727 -0.015277066191967989 0.27839478090407538 -0.12243363718965357 0.053481065635436843
leaf_weight=18.822481945157051 139.88068890664726 8.5955686233937723 1.1756178550422181 61.0659238724038 895.85370833892375 131.92884423211217 4.8380881361663333 85.074331942945719 1.425328455865382 0.80113056395202764 0.56166922673583031 75.303120883181691 0.16440193168818851 38.151963174343109 3.5531810224056226 1.0175327770411957 41.682753523811698 2.400320902466774 1.6486194282770155 1.6695353984832761 1.3257475160062306 2.2878271024674177 0.86817514523863692 4.5142880007624644 2898.9642071388662 5.1275686770677531 4.4340354502201089 4.4548188373446465 3.7060740739107132 18.741500459611416
leaf_count=156 13915 246 28 8785 21446 3362 117 2482 38 29 19 1853 16 872 47 28 1193 31 22 22 21 72 24 36 19834 37 31 34 30 431
internal_value=0 0.00178608 -0.00659565 -0.0547104 -0.00455268 -0.0174581 0.00720427 -0.0324869 0.035469 -0.0046192 0.189338 0.0143823 -0.0827415 -0.0263109 -0.00756816 0.0147002 -0.00332441 0.106425 0.211625 0.0248672 -0.00974555 0.115472 -0.0203795 0.00554615 0.00589567 0.0580105 0.10753 0.164357 -0.0264249 -0.000208727
internal_weight=0 4258.93 1318.9 201.111 1222.45 307.851 81.3168 96.458 11.3837 9.95837 1.3628 76.4787 61.2303 226.535 94.6057 56.4537 47.182 9.27166 4.04894 5.22272 46.1645 3.61357 42.5509 2940.02 2921.2 22.2368 14.0164 9.58239 8.22036 914.595
internal_count=75257 52541 32383 22716 29569 7692 1998 2814 332 294 48 1881 8801 5694 2332 1460 1338 122 53 69 1310 93 1217 20158 20002 168 102 71 66 21877
is_linear=0
shrinkage=0.1


Tree=28
num_leaves=31
num_cat=0
split_feature=7 7 7 5 14 20 6 2 7 22 2 6 18 0 0 0 10 11 15 24 2 22 0 0 0 5 2 8 26 11
split_gain=52.7682 11.495 6.40614 6.06406 10.4134 10.2006 16.1762 14.1782 5.083 5.91469 4.97709 4.86479 5.14722 7.4054 7.30446 6.93929 5.59711 6.55682 5.38817 8.96368 6.01615 7.78819 5.92979 5.5027 4.81874 4.77598 4.67396 74.9981 4.59439 4.31309
threshold=66.950000000000017 24.250000000000004 189.05000000000004 407.00000000000006 1450.0000000000002 20.733333333333338 -1.0000000180025095e-35 1100.5000000000002 1.7500000000000002 348.50000000000006 1097.5000000000002 7.5000000000000009 6.5000000000000009 2020101553.5000002 2020100700.5000002 2021107023.5000002 3.5000000000000004 9.5000000000000018 1.0000000180025095e-35 150.01500000000001 1043.5000000000002 136.82000000000002 2021104460.0000002 2021105322.5000002 2021103701.5000002 477.00000000000006 414.50000000000006 14.500000000000002 523.51250000000016 2.5000000000000004
decision_type=2 2 2 2 10 10 2 2 2 10 2 2 2 2 2 2 2 2 10 10 2 10 2 2 2 2 2 2 10 2
left_child=1 8 26 4 -3 6 -6 -8 9 11 28 12 13 -1 -14 18 29 24 20 25 22 -22 -15 -21 -18 -20 27 -2 -11 -16
right_child=2 3 -4 -5 5 -7 7 -9 -10 10 -12 -13 14 15 16 -17 17 -19 19 23 21 -23 -24 -25 -26 -27 -28 -29 -30 -31
leaf_value=-0.057261583535850563 -0.10102202124118723 -0.052785273937936229 -0.081171215197915522 -0.017462059232667044 0.55898519831062699 -0.040750489254833322 0.44967900408581835 -0.10432952762312331 0.0022990832281334444 0.060186962395707894 0.07295070192601795 0.074780280614429817 0.068081952563629297 -0.070835009201658861 -0.034067162565027197 -0.048220050641692366 -0.013237230435444895 -0.071697356882652705 0.012576069823461426 0.0028189920993203859 0.025083400063489691 0.14554091867063421 0.084398248774361653 -0.12865076208589751 0.083445159410494199 0.13864161359465019 -0.043024868382467538 1.9930202887063793 -0.038137266751311058 -0.13658290838949891
leaf_weight=10.621766254305838 1.6340082203969348 3.9903995022177678 56.460172788240016 355.78630109410733 1.2003929018974302 1.5963072907179592 0.72130632959306318 1.2846981734037397 3704.4409371949732 8.9743404686450976 31.224645137786865 10.344491392374037 8.3064572811126691 4.9203184843063337 9.0070560425519961 9.201859846711157 14.276819109916689 11.336641758680342 6.1155260652303713 9.0938019007444364 8.5966189652681368 14.289143070578573 4.9227399379014969 4.8985809832811347 8.0685340613126737 5.9087186008691788 125.90915403421968 0.19102767854928959 10.101585894823073 7.5391665399074546
leaf_count=43 167 170 8801 15556 27 60 21 41 36370 37 130 42 34 20 37 38 58 46 25 37 35 58 20 20 33 24 13212 22 42 31
internal_value=0 0.00154643 -0.0531206 -0.0154346 0.0666024 0.165797 0.268627 0.0948773 0.00313296 0.018754 0.0483643 0.00865274 0.00366341 0.0203875 -0.0187847 0.0325259 -0.0331503 -0.00975336 0.0451739 0.0112056 0.0721758 0.100293 0.00680071 -0.0432071 0.0216732 0.0745247 -0.0407219 0.118163 0.00811973 -0.0807777
internal_weight=0 4266.77 184.194 364.579 8.7931 4.8027 3.2064 2.006 3902.19 197.749 50.3006 147.448 137.104 78.5691 58.5347 67.9473 50.2282 33.682 58.7454 26.0166 32.7288 22.8858 9.84306 13.9924 22.3454 12.0242 127.734 1.82504 19.0759 16.5462
internal_count=75257 53055 22202 15875 319 149 89 62 37180 810 209 601 559 320 239 277 205 137 239 106 133 93 40 57 91 49 13401 189 79 68
is_linear=0
shrinkage=0.1


Tree=29
num_leaves=31
num_cat=0
split_feature=7 7 7 6 15 0 21 2 2 18 0 21 10 7 24 18 26 12 13 20 0 5 0 21 5 1 21 21 15 7
split_gain=45.8605 10.0659 6.31684 5.37478 6.4056 5.91068 5.41239 7.98785 11.0928 13.0968 9.79289 7.6968 8.68846 5.18372 7.09518 9.96129 13.4041 18.3881 6.27147 7.43018 10.071 13.3414 10.7427 7.50216 7.36104 6.56305 5.16174 26.603 13.8985 15.8171
threshold=66.950000000000017 8.6500000000000004 247.35000000000005 -2.4999999999999996 1.0000000180025095e-35 2018100772.5000002 4.7750000000000012 1058.5000000000002 1062.5000000000002 5.5000000000000009 2016104684.0000002 4.9000000000000012 5.5000000000000009 11.15 33.267857142857146 6.5000000000000009 100.00370370370372 1.0000000180025095e-35 1.0000000180025095e-35 57.000000000000007 2019100095.5000002 461.00000000000006 2018104892.0000002 5.5500000000000007 405.00000000000006 1189.0000000000002 7.7750000000000012 7.1000000000000005 1.5000000000000002 23.850000000000005
decision_type=2 2 2 2 10 2 8 2 2 2 2 10 2 2 8 2 10 2 10 10 2 2 2 10 2 2 10 10 10 2
